tree
version=v4
num_class=1
num_tree_per_iteration=1
label_index=0
max_feature_idx=11
objective=binary sigmoid:1
feature_names=SMA_20 SMA_60 RSI_14 VOL_SMA_20 MACD MACD_Sig BBP_20 ATR_14 STOCH_K STOCH_D CCI_20 ALPHA_SMA_20
feature_infos=[20:1734750] [20.016666666666666:1620983.3333333337] [0:100.00000000000001] [0:1216329657.45] [-87412.43706213127:96873.617146516975] [-35442.253899615287:41811.059434541086] [-524287:32769] [2.2250777754382866e-16:395909.87094553583] [0:1.7834029344405796e+23] [0:1.7834029344405796e+23] [-inf:1706641.7181069958] [-0.10669825070053075:0.71405115140751918]
tree_sizes=3467 3555 3577 3568 3552 3533 3582 3585 3586 3576 3592 3581 3579 3562 3576 3577 3555 3572 3555 3570 3586 3577 3576 3554 3584 3571 3571 3570 3574 3559 3591 3571 3583 3586 3597 3580 3579 3587 3553 3566 3580 3591 3584 3580 3547 3567 3574 3608 3570 3601 3566 3579 3558 3591 3564 3584 3568 3581 3559 3560 3562 3515 3556 3591 3584 3611 3549 3547 3560 3570 3598 3548 3566 3557 3562 3570 3607 3592 3572 3559 3536 3540 3599 3577 3527 3546 3583 3577 3508 3561 3539 3591 3592 3548 3559 3566 3573 3526 3579 3558

Tree=0
num_leaves=31
num_cat=0
split_feature=10 11 11 3 10 2 3 0 11 3 2 11 7 0 0 4 7 7 0 7 7 3 0 7 0 7 4 0 6 7
split_gain=29226.2 19464.2 20506.2 13822.1 4392.82 3909.81 3561.55 3321.99 2753.75 2370.7 1895.53 1660.88 1398.13 3337.18 2193.91 1659.69 1595.59 1539.03 1597.64 1269.06 1268.62 1181.54 1160.3 1879.79 1143.75 1072.07 1049.56 1020.97 1015.91 995.45
threshold=-1761.378681626918 -0.0079992284616923256 0.0062915027205442372 70818.950000000026 -6747.1308008858132 27.048325488987249 2396.1250000000009 1934.8000000000004 0.017391895615011446 25980.400000000005 31.910728627528822 -0.0048659288834290932 205.28075075031927 3530.1250000000005 5475.0750000000007 -276.81821353446861 127.11161179123835 335.16097180228672 13305.500000000002 620.58849562216108 547.82635634188796 7538.3750000000009 5743.1500000000005 195.48811592552642 22148.025000000005 1236.8609392913477 -179.46401741822407 7001.675000000002 0.12417628266305121 279.50806236327782
decision_type=2 2 2 2 2 2 2 2 2 2 2 2 2 2 2 2 2 2 2 2 2 2 2 2 2 2 2 2 2 2
left_child=4 5 3 7 -1 28 -7 21 -4 11 -5 -9 13 16 15 -14 -12 -16 20 -20 -19 -3 23 -13 -21 -26 27 -11 -2 -24
right_child=1 2 8 10 -6 6 -8 9 -10 26 12 22 14 -15 17 -17 -18 18 19 24 -22 -23 29 -25 25 -27 -28 -29 -30 -31
leaf_value=-1.8021905682883625 -1.5412796379643072 -1.597209228211615 -1.6568889639802735 -1.6517457412976826 -1.7447167425951329 -1.5055094304204129 -1.647979199052144 -1.6965164985186194 -1.6090976146027012 -1.6356737842705273 -1.6969996022216753 -1.7372360482228342 -1.5121656311322225 -1.7274613983474891 -1.7118492016534086 -1.6606146362802707 -1.6607017819256444 -1.6808800959923493 -1.7278121139285774 -1.6670635659551305 -1.6426816432300895 -1.690683013271709 -1.7685412607515731 -1.6603933891020695 -1.7201692652631118 -1.687172831184673 -1.7212849150980496 -1.703498253135499 -1.6169202372883302 -1.7405125979449494
leaf_weight=19998.44986975193 6061.3575103282928 2518.565615773201 61035.407694339752 13002.492422103882 39694.394481897354 1864.6204265356064 29755.421999931335 9103.9428305625916 15024.515022039413 2484.5468584299088 44971.227111339569 12472.192331671715 782.43141889572144 30993.181401729584 25808.461099863052 20115.160375714302 16573.676894903183 27185.304882645607 9373.7377445697784 18102.427513360977 12782.548071742058 2920.2486351728439 16350.984875679016 4274.5877015590668 13738.082628965378 34762.067191243172 59827.349284529686 20798.806556940079 2511.2384988069534 56302.351816892624
leaf_count=152845 46326 19249 466484 99376 303378 14251 227416 69580 114830 18989 343708 95323 5980 236876 197250 153737 126670 207773 71642 138354 97695 22319 124968 32670 104998 265681 457251 158962 19193 430310
internal_value=-1.69739 -1.69044 -1.69551 -1.70354 -1.76397 -1.62334 -1.63958 -1.72441 -1.64745 -1.72671 -1.68899 -1.73721 -1.69089 -1.7007 -1.6853 -1.65506 -1.68722 -1.68976 -1.68485 -1.69336 -1.66866 -1.6474 -1.74135 -1.71762 -1.68851 -1.69652 -1.71427 -1.69626 -1.56344 -1.74682
internal_weight=631190 571497 531304 455244 59692.8 40192.6 31620 187054 76059.9 181615 268191 98504.1 255188 92538.1 162650 20897.6 61544.9 141753 115944 75976.3 39967.9 5438.81 89400.1 16746.8 66602.6 48500.1 83110.7 23283.4 8572.6 72653.3
internal_count=4824084 4367861 4060675 3479361 456223 307186 241667 1429621 581314 1388053 2049740 752851 1950364 707254 1243110 159717 470378 1083393 886143 580675 305468 41568 683271 127993 509033 370679 635202 177951 65519 555278
is_linear=0
shrinkage=1


Tree=1
num_leaves=31
num_cat=0
split_feature=10 11 11 3 10 2 3 11 0 3 6 7 0 0 7 4 4 3 7 0 4 7 0 7 11 7 6 0 11 3
split_gain=24988 15344.4 17093 11314.5 3166.5 3086.87 2689.12 2422.57 2276.22 2289.45 1338.64 1352.54 2611.48 1929.99 1590.72 1385.37 1366.47 1268.36 1220.41 1210.22 1268 1251.59 1238.29 1219.8 1066.29 981.683 940.145 876.433 811.4 790.129
threshold=-2262.3091682752361 -0.0072394611534058817 0.0058047736583798828 76210.22500000002 -8281.61510058571 28.756072368814831 1585.5500000000004 0.012828960146523542 2200.1500000000005 26816.475000000002 -0.038975234255550044 177.27234707047458 3441.3750000000005 4821.8750000000009 279.50806236327782 -104.46233997903072 -221.23795509314093 6484.3250000000016 144.16507022813542 8861.100000000004 -535.86311659336377 431.45987553308595 21206.250000000004 1000.4820804642537 -0.0041244490946666544 784.37167282148857 0.33500814625048397 1798.6250000000002 -0.010379000920112017 85271.35000000002
decision_type=2 2 2 2 2 2 2 2 2 2 2 2 2 2 2 2 2 2 2 2 2 2 2 2 2 2 2 2 2 2
left_child=4 5 3 8 -1 28 -7 -4 17 24 -5 12 15 16 -15 27 -13 26 -11 20 -16 -21 25 -24 -10 -23 -3 -12 -2 -6
right_child=1 2 7 10 29 6 -8 -9 9 18 11 13 -14 14 19 -17 -18 -19 -20 21 -22 22 23 -25 -26 -27 -28 -29 -30 -31
leaf_value=-0.10563861288570742 0.12105301285536524 0.14762387159934418 0.029525159115583285 0.046356151902197711 -0.066019205504791137 0.15350380164646757 0.036647798716628925 0.065211334651149838 -0.011423596383727752 -0.041197255132197075 0.23014049300480718 0.14007628688794319 -0.035534183805502155 -0.018317824817858937 0.20339974566845284 0.0019150979280275347 0.032287970702516648 -0.0043392673851669469 -0.010556159658359279 -0.026276024460548154 0.027374479274627911 0.012287000961405291 -0.033832979645012438 0.0067004780258019163 -0.04289474499676979 0.04688390133427562 0.033401451255275071 0.054509990324408591 0.071920654243524521 -0.034028755236502055
leaf_weight=16296.478449180722 7266.5902189314365 1141.3392340093851 57579.242949381471 8098.9191590845585 16675.010226562619 2080.2160473614931 36929.037110313773 28408.323244929314 12354.121816575527 16012.942204371095 324.2306009978056 1251.8341296315193 21353.905470833182 22430.751982495189 416.18227764964104 58088.743767186999 19450.372037246823 5565.5208142399788 69053.562191620469 10922.930227562785 24509.091115951538 26178.068813025951 9158.5457754731178 39211.031184703112 83746.098089292645 11943.428932771087 1954.7478954643011 2297.3940032124519 6254.1876322478056 14377.773578569293
leaf_count=134085 51353 8293 429379 61027 132266 14231 274193 207427 95387 124405 2445 9018 165945 172281 3073 442705 146401 42801 532986 83347 185551 197312 70792 298301 659899 89082 14213 17213 44904 113769
internal_value=-7.29963e-05 0.00559193 0.000495707 -0.00738362 -0.0699412 0.0571509 0.0428793 0.0413151 -0.0258781 -0.0282724 0.0063499 0.00504097 -0.00545546 0.0102466 0.00616258 0.00512425 0.0388058 0.0242022 -0.016324 0.010651 0.0303136 0.00561998 0.00964812 -0.000974336 -0.038849 0.0231262 0.0755083 0.0762312 0.0983263 -0.0512073
internal_weight=631331 583981 531451 445464 47349.3 52530 39009.3 85987.6 189828 181167 255635 247537 82064.3 165472 144770 60710.4 20702.2 8661.61 85066.5 122339 24925.3 97414 86491.1 48369.6 96100.2 38121.5 3096.09 2621.62 13520.8 31052.8
internal_count=4824084 4443964 4059283 3422477 380120 384681 288424 636806 1477984 1412677 1944493 1883466 628308 1255158 1099739 462363 155419 65307 657391 927458 188624 738834 655487 369093 755286 286394 22506 19658 96257 246035
is_linear=0
shrinkage=0.1


Tree=2
num_leaves=31
num_cat=0
split_feature=10 3 11 11 2 11 3 0 10 11 11 7 0 0 7 1 7 7 0 0 7 0 3 11 7 4 0 11 7 7
split_gain=21378.2 12552.8 9065.87 5693.81 4755.72 4819.88 2199.8 2653.81 2037.21 1980.21 1528.36 1263.74 2016.67 1800.19 1237.78 1146.82 1359.49 1117.42 1135.71 1065.47 998.185 992.159 979.336 946.936 945.937 907.153 827.272 803.028 788.508 768.962
threshold=-2951.403654314604 100701.67500000002 -0.0067643426568141972 0.005230233437876426 29.703376748991275 0.0087956610562189789 27655.025000000005 2090.0500000000006 -8281.61510058571 -0.012149441679035696 -0.0069198228219536804 156.10670958797763 3125.1250000000005 3804.8250000000003 276.07178338122429 31794.058333333345 1507.6123544886991 181.65695596972853 4708.6250000000009 6434.550000000002 99.952702805622977 6216.7500000000009 259.4500000000001 0.0097890265106707359 322.08650859772814 -196.01698801616701 21663.750000000004 -0.0092741264169847321 470.64587076285147 112.6353619527226
decision_type=2 2 2 2 2 2 2 2 2 2 2 2 2 2 2 2 2 2 2 2 2 2 2 2 2 2 2 2 2 2
left_child=8 2 9 6 27 10 7 -4 -1 -2 -6 12 20 25 21 -16 -17 18 29 -19 -12 -15 26 -5 -21 -13 28 -3 -9 -8
right_child=1 4 3 23 5 -7 17 22 -10 -11 11 13 -14 14 15 16 -18 19 -20 24 -22 -23 -24 -25 -26 -27 -28 -29 -30 -31
leaf_value=-0.10311569296595274 0.112137447682439 0.09695708888623078 0.040344970250034327 0.014596778027937872 0.031299003681839778 0.045530534888012508 -0.031054522094997164 -0.00075019037532028101 -0.054813151014049405 0.035076512899017982 -0.0041399045700879914 0.15763702792063722 -0.034944657989838361 0.0027857332963564995 0.018521649206449609 -0.038337565223511859 0.0087262650029035146 0.022809192783353686 -0.058271516880061783 -0.033662516422311231 0.024353420607637215 -0.034719541868084645 -0.039799342090243814 0.05730066044009971 -0.0048791034192042183 0.03847425071197088 -0.055115773711031747 0.050983192794910551 0.099418553101149248 0.0026862262892711265
leaf_weight=15088.027669899166 4117.683869831264 6835.3124426007271 4608.2944903373718 14559.830942638218 29242.007167264819 43313.738424122334 17075.903832323849 2455.71864156425 20726.050956308842 17533.942311607301 38380.372686639428 666.01207625120878 16296.614518076181 22988.580811925232 94683.302732259035 8248.1110612899065 23986.786505118012 10654.901076860726 9134.0540438070893 14673.495685525239 18089.847785487771 10175.377796195447 89933.442211121321 8071.072536662221 51457.687099717557 15664.908545911312 1597.7320604324341 8553.9759310930967 1155.6834314242005 11174.848684437573
leaf_count=134085 27347 45463 33361 108500 212348 308331 134802 19731 170679 125279 294668 4547 127783 175077 706195 63524 180395 81821 72223 114302 135826 79540 726657 57388 397146 115547 12928 61497 9251 87843
internal_value=-0.000125768 0.00438832 -0.0122039 -0.0178729 0.0170963 0.0144987 -0.022919 -0.0337679 -0.0751624 0.0497319 0.00967114 0.00713305 -0.00395539 0.0117068 0.00848033 0.0129752 -0.0033162 -0.0134404 -0.0276187 -0.00653744 0.00498774 -0.00872165 -0.0373576 0.0298267 -0.0112657 0.043334 0.00479809 0.071403 0.0313048 -0.0177081
internal_weight=631143 595329 258204 236553 337125 321736 213922 99750.9 35814.1 21651.6 278422 249180 72766.8 176413 160082 126918 32234.9 114171 37384.8 76786.1 56470.2 33164 95142.6 22630.9 66131.2 16330.9 5209.13 15389.3 3611.4 28250.8
internal_count=4824084 4519320 2008579 1855953 2510741 2403781 1690065 801928 304764 152626 2095450 1883102 558277 1324825 1204731 950114 243919 888137 294868 593269 430494 254617 768567 165888 511448 120094 41910 106960 28982 222645
is_linear=0
shrinkage=0.1


Tree=3
num_leaves=31
num_cat=0
split_feature=10 3 11 11 2 11 10 3 0 11 7 1 0 4 0 4 7 0 11 11 0 7 10 0 7 7 0 3 7 11
split_gain=18361.6 9971.73 7325.84 4729.49 3760.95 3856.32 2469.43 1940.31 2215.28 1699.1 1089.34 1966.65 1281.6 1251.25 1341.4 920.813 909.534 1125.23 908.073 860.129 850.412 982.959 753.785 750.814 3149.46 1177.02 1700.24 1022.34 764.827 709.662
threshold=-2577.2943545485787 104279.37500000001 -0.0062418664715090883 0.005230233437876426 32.519211341408941 0.007454187723854251 -8281.61510058571 27655.025000000005 2521.2750000000001 -0.010880719240028668 205.28075075031927 3977.2916666666674 3804.8250000000003 -98.591966366334859 1657.9000000000001 -286.11218849765913 148.10948556911987 3900.2000000000003 -0.0092741264169847321 0.020758796224713567 5344.5500000000002 240.54633562323821 3990.5603854431924 7715.6000000000013 265.89515024528163 373.74753943028713 17710.625000000004 5973.4000000000005 547.82635634188796 0.011096078846835064
decision_type=2 2 2 2 2 2 2 2 2 2 2 2 2 2 2 2 2 2 2 2 2 2 2 2 2 2 2 2 2 2
left_child=6 2 9 7 18 10 -1 8 -4 22 11 13 15 14 -6 -12 17 -9 -3 -7 -18 -22 -2 24 -10 -25 28 -28 -27 -5
right_child=1 4 3 29 5 19 -8 16 23 -11 12 -13 -14 -15 -16 -17 20 -19 -20 -21 21 -23 -24 25 -26 26 27 -29 -30 -31
leaf_value=-0.10071522707020984 0.12711149672241648 0.07695792530044708 0.02595167295485705 0.015117492225006399 0.21292138014677098 0.030939860626519652 -0.048002620464204365 -0.014956891803531878 -0.036830692540711092 0.024963953373464659 0.19683706182858718 -0.030191015454746253 0.010461072155936507 0.0028039044697231608 0.037983212326863983 0.044270555334224887 0.018962782362458783 -0.059438139212488895 0.037750980897317071 0.063881921896710131 -0.037379127116356207 -0.0060326329376612911 0.056182568169211612 -0.064706551206035939 0.058273216539429719 -0.021114864491011149 -0.060281127523218216 -0.026705269809321197 0.03295695085087913 0.05346374127799669
leaf_weight=13961.029262579978 2490.7945495396852 9680.7747021019459 6232.9172491207719 16784.858232110739 490.98819567263126 44636.887105636299 24454.250156193972 19081.46996037662 21139.734273478389 20723.784285962582 418.99528977274895 18646.605737172067 153194.02387820184 70959.994505867362 4086.0590107813478 7083.9962241053581 10835.865124113858 8101.6437640860677 15155.560085035861 9637.4589003622532 11891.839889459312 63002.294362552464 3760.2247382253408 16292.909788995981 4168.7524011731148 6289.7355109900236 18558.955388493836 17734.168445833027 4478.518552608788 6773.9351730793715
leaf_count=134085 15557 62671 45697 123181 3369 313413 208159 152166 175495 148405 2709 148488 1137432 537539 29267 50043 83227 66271 107631 64550 94756 489003 24026 136874 33440 52108 154519 147205 36680 46118
internal_value=-0.000162237 0.00418282 -0.0105699 -0.0163198 0.015594 0.0125863 -0.0671596 -0.0211337 -0.031674 0.0387478 0.00743253 -0.00110689 0.0124374 0.00607263 0.0567491 0.0527904 -0.0122753 -0.0282141 0.0530332 0.0367894 -0.00722149 -0.0110099 0.0844451 -0.035725 -0.0211654 -0.0415413 -0.0335213 -0.0438747 0.00137361 0.0261433
internal_weight=630749 592334 258342 231368 333991 309155 38415.3 207809 94895.7 26974.8 254881 94183.6 160697 75537 4577.05 7502.99 112913 27183.1 24836.3 54274.3 85730 74894.1 6251.02 88662.8 25308.5 63354.3 47061.4 36293.1 10768.3 23558.8
internal_count=4824084 4481840 2024728 1836740 2457112 2286810 342244 1667441 782018 187988 1908847 718663 1190184 570175 32636 52752 885423 218437 170302 377963 666986 583759 39583 736321 208935 527386 390512 301724 88788 169299
is_linear=0
shrinkage=0.1


Tree=4
num_leaves=31
num_cat=0
split_feature=10 3 11 11 2 11 10 3 11 3 0 3 7 0 0 7 0 7 0 0 7 0 4 7 6 4 1 7 11 6
split_gain=15822 8351.15 5895.23 3908.58 3136.85 3097.64 1707.95 1378.06 1318 1298.08 2003.33 1175.11 1040.84 1493.18 1484.56 1189.26 1094.5 1325.73 1334.79 1080.27 959.009 985.334 955.946 933.928 847.467 841.332 813.102 839.429 787.294 775.736
threshold=-3179.8759491767528 83655.600000000006 -0.0061245292028121083 0.0044897402058335775 28.239573837898764 0.0087956610562189789 -11035.722697911178 1340.925 -0.0063636947205181925 21450.900000000005 4125.9500000000016 3050.6000000000008 117.95597569244937 3212.3750000000005 2521.2750000000001 229.24838434071253 7001.675000000002 431.45987553308595 16412.550000000007 4995.625 193.15449204538604 4937.6250000000009 -368.72185791981696 784.37167282148857 0.38146052539361192 -131.10634407442737 31794.058333333345 1507.6123544886991 0.0082137596704336003 1.0000000180025095e-35
decision_type=2 2 2 2 2 2 2 2 2 2 2 2 2 2 2 2 2 2 2 2 2 2 2 2 2 2 2 2 2 2
left_child=6 2 7 9 -3 8 -1 -2 -6 10 11 24 14 25 -10 19 22 -18 -19 -15 21 -11 -17 -20 -4 -14 -25 -28 -5 -9
right_child=1 4 3 28 5 -7 -8 29 12 20 -12 -13 13 15 -16 16 17 18 23 -21 -22 -23 -24 26 -26 -27 27 -29 -30 -31
leaf_value=-0.10216944687859633 0.093090478117002315 0.058659054796362575 0.087694585793617316 0.0046640287086065508 0.024147276861173992 0.034847852130177326 -0.052755622363371814 0.068758692724905729 0.0017796950048516694 -0.018072509285398934 -0.038903082954830137 -0.020510569408690622 0.10996512969128472 0.0019433154274383605 -0.036297206597435322 0.14811532817057532 -0.016028317889951602 0.025448572756176888 -0.028586886271173069 -0.033109946963673968 -0.0077034272271942388 -0.055386657131464213 0.023372472127142756 0.022024305078521312 0.0047205484709552581 0.028083351969989397 -0.031481265231005598 0.0054376692415509398 0.040328533072579463 0.016696080303591047
leaf_weight=11133.217513471842 3451.5531940162182 14258.656952336431 2271.5757670253515 14821.890278056264 39927.152524136007 46625.846077978611 18817.727964192629 3404.3571209684014 41854.29486245662 26817.278282262385 65887.407460644841 7210.4353059008718 1342.099509306252 24348.989353403449 13555.740261770785 627.15517834573984 24469.781989715993 35660.895418465137 8987.658013343811 13760.259438149631 65937.281262718141 9613.7658149302006 30041.374893635511 20375.291999101639 2687.0047579184175 19303.193141952157 8034.37643904984 26379.599411308765 10627.810098908842 17962.716089501977
leaf_count=115596 20987 91104 16516 112169 280701 314457 169845 23048 321679 218903 563743 58807 8855 187296 106539 4169 184973 257914 68070 110794 521787 81208 219090 149962 20206 139357 62712 195927 71996 125674
internal_value=-0.00018981 0.00334963 -0.0115793 -0.0171297 0.012669 0.0108234 -0.0711235 0.0344617 0.00719433 -0.0223046 -0.0320182 0.00525917 0.00467561 0.00784732 -0.0075356 0.0051088 0.00900964 0.0048233 0.00995449 -0.0107135 -0.0148979 -0.0279193 0.0259234 0.00129096 0.0427318 0.0334063 0.00619214 -0.00318152 0.0195575 0.0249911
internal_weight=630196 600245 230693 205874 369552 355294 29950.9 24818.6 308668 180425 78056.4 12169 268741 213331 55410 192685 154576 123908 99437.8 38109.2 102368 36431 30668.5 63776.9 4958.58 20645.3 54789.3 34414 25449.7 21367.1
internal_count=4824084 4538643 1835044 1665335 2703599 2612495 285441 169709 2298038 1481170 659272 95529 2017337 1589119 428218 1440907 1142817 919558 734585 298090 821898 300111 223259 476671 36722 148212 408601 258639 184165 148722
is_linear=0
shrinkage=0.1


Tree=5
num_leaves=31
num_cat=0
split_feature=10 3 11 10 11 2 0 7 3 11 7 0 7 4 0 0 4 0 0 7 0 7 4 7 4 3 6 0 3 7
split_gain=13691.9 6371.13 5080.66 3393.61 2894.88 2011.37 1978.64 2827.58 2485.25 1978.03 1953.77 1699.23 1012.73 975.597 1612.42 972.695 917.003 902.796 852.818 1374.41 783.343 673.794 661.878 624.916 617.293 612.772 653.197 567.638 563.467 558.125
threshold=-1657.9979665035091 143179.40000000005 -0.0087032239357915809 -6747.1308008858132 0.0068370089935702854 32.519211341408941 3900.2000000000003 160.28893058106456 14877.1 0.011612419303007352 119.76478322723872 7715.6000000000013 344.21833437637099 -318.5491874929898 14327.825000000001 1934.8000000000004 -174.17472750170688 2239.7750000000001 6841.4500000000016 384.78788577453128 5288.4500000000007 61.789870491092039 -685.03286735121935 89.136569862542729 -329.540057260212 1152.0750000000003 0.26835462202241539 6927.2500000000009 165.82500000000005 309.81048581718625
decision_type=2 2 2 2 2 2 2 2 2 2 2 2 2 2 2 2 2 2 2 2 2 2 2 2 2 2 2 2 2 2
left_child=3 2 20 -1 6 -3 10 -8 11 29 15 12 -9 14 22 21 -12 -5 -15 -20 24 -4 -10 -17 -2 26 -18 -24 -13 -7
right_child=1 5 4 17 -6 9 7 8 13 -11 16 28 -14 18 -16 23 25 -19 19 -21 -22 -23 27 -25 -26 -27 -28 -29 -30 -31
leaf_value=-0.091915661572974539 0.16068377687398425 0.044360867198359188 -0.0079399141844952968 -0.020301872487364491 0.027456193465676716 0.0042840812894166646 -0.052253078097184248 -0.010141617636330237 0.13391954479767615 0.036404568087944511 0.12070472499686435 0.01029873079060748 0.072268435194554045 0.0058929359658321115 -0.0029578155115313671 -0.042934163023335047 0.16339565109038967 -0.05168169450883691 -0.032295648999090168 -0.0052545409011355085 0.033311966197357983 0.05077332624681026 0.10597260104160144 -0.0054328995889094817 0.066089541386758752 0.019593294821923096 0.04231705880173714 0.026995089580919174 -0.040799257530167575 0.013983544733251869
leaf_weight=13921.116078421474 817.14028766751289 21163.666167110205 4208.3333294019103 20932.290328718722 19713.793898850679 115455.7367381528 19804.248250119388 5066.4119661748409 810.33908664435148 30286.698076829314 1133.1092224568129 2271.7506808415055 2113.1483085528016 24727.404216937721 26138.500512860715 8313.3928958103061 621.01137360930443 16313.620910391212 29983.675173908472 50375.45579713583 10250.866820827127 3649.7265730574727 1067.1907703429461 9545.8530060574412 4428.952258169651 13514.74655354023 1577.1055180132389 6180.363211363554 43117.227123044431 122024.8351181075
leaf_count=152845 4706 136683 31164 177082 133260 859296 170735 42775 5835 197047 7875 18847 16171 192970 201565 67289 4163 144799 244731 392835 64778 26484 7440 77070 26991 103349 11416 46434 376638 880811
internal_value=-0.00020822 0.00417831 -0.00630829 -0.0497908 -0.00945959 0.014683 -0.0123223 -0.0162785 -0.012565 0.0123373 0.00735103 -0.0310913 0.014114 -0.00557272 0.00909862 -0.0099892 0.0338229 -0.0340462 -0.010347 -0.0153441 0.0493958 0.0193298 0.0482077 -0.0228896 0.0808237 0.0275575 0.0765241 0.0386244 -0.0382418 0.00926796
internal_weight=629528 578361 289430 51167 273933 288931 254219 211656 191851 267767 42563.3 52568.5 7179.56 139283 34196.4 25717.3 16846 37245.9 105087 80359.1 15497 7858.06 8057.89 17859.2 5246.09 15712.9 2198.12 7247.55 45389 237481
internal_count=4824084 4349358 2275521 474726 2179046 2073837 2045786 1716976 1546241 1937154 328810 454431 58946 1091810 261274 202007 126803 321881 830536 637566 96475 57648 59709 144359 31697 118928 15579 53874 395485 1740107
is_linear=0
shrinkage=0.1


Tree=6
num_leaves=31
num_cat=0
split_feature=10 3 11 11 2 11 11 10 3 3 0 7 0 7 3 1 7 0 7 0 7 0 7 1 11 2 0 7 1 5
split_gain=11818.2 5674.1 4129.42 2842.39 2181.23 2090.16 1533.37 1246.86 987.137 887.341 1452.22 827.552 1246.06 1115.59 759.996 738.095 736.083 731.408 1061.14 785.46 890.13 907.227 758.613 662.375 660.319 654.855 603.101 650.492 581.819 596.267
threshold=-3730.5677093328227 76210.22500000002 -0.0058961201420468538 0.0041595673870449502 24.869995862983377 0.0051052814946273154 -0.0058961201420468538 -11035.722697911178 2719.0750000000007 21450.900000000005 1755.0250000000003 74.839238717366626 2239.7750000000001 129.04598159591023 259.4500000000001 1876.4416666666668 98.165334925039858 3988.5750000000007 243.60122716790715 7430.5750000000016 425.26522796161913 17036.250000000004 798.86351778190692 6254.8833333333341 0.020758796224713567 23.835079537863439 36355.625000000007 1551.4455297801442 18072.400000000005 -28.734469290657426
decision_type=2 2 2 2 2 2 2 2 2 2 2 2 2 2 2 2 2 2 2 2 2 2 2 2 2 2 2 2 2 2
left_child=7 2 8 9 -3 6 -6 -1 -2 10 -4 15 -13 -14 28 -8 -11 -15 23 -20 -21 -22 -23 -19 -7 -10 -24 -28 29 -12
right_child=1 4 3 -5 5 24 11 -9 25 16 14 12 13 17 -16 -17 -18 18 19 20 21 22 26 -25 -26 -27 27 -29 -30 -31
leaf_value=-0.098361427531639789 0.067341739187719532 0.060168376136312943 0.039975450047980914 0.014644325595778078 0.019927943329237925 0.018980030144704483 -0.0063650885096677313 -0.051034508913574042 0.059186994278825102 -0.037360342133565858 0.10272907772855655 0.031964860327207793 -0.020708856860064025 0.020379149338289573 -0.034268889662689934 -0.045695807812247968 -0.010386833414448971 -0.0065304911983178216 0.021799770960593958 -0.018460758260030942 0.019252298518683961 -0.030088931612310715 0.016119109196172914 -0.040671006225592839 0.045640340590089618 0.010029284236670136 -0.037669255525698102 0.00095800175187852113 -0.042846231835256827 0.0054448007568690263
leaf_weight=9528.711500108242 4913.4780067354441 8371.1143791973591 2963.3324596434832 26763.092903077602 53137.911833703518 75659.458360463381 21227.556752704084 13388.391144245863 3198.4972225055099 11607.043252274394 854.40579398721457 14122.319457933307 20770.05864726752 23103.973259232938 66237.190239652991 6154.8977335393429 78808.776702165604 19368.827056743205 23158.646467968822 18492.829169712961 31479.958287194371 8199.5761712640524 19852.122729927301 8042.490537583828 10590.568716958165 17742.049760103226 5459.3000012263656 21644.430381059647 1587.9448606669903 2398.9798744693398
leaf_count=115596 28897 49837 20031 192622 362189 517986 167542 131597 20042 100442 6638 104868 165415 165558 593747 49538 643849 152922 166900 142031 223894 63164 146264 66699 65295 124273 42892 159951 14300 19105
internal_value=-0.00022144 0.00244472 -0.0105069 -0.0155784 0.00967517 0.0085642 0.0045511 -0.0707126 0.0270028 -0.0204967 -0.0286138 0.00116176 0.00325905 0.00122775 -0.0314733 -0.0152057 -0.0138495 0.00377595 0.00131221 0.00512829 0.00145574 0.00570704 -0.00202392 -0.0165473 0.0222536 0.0175377 0.00287688 -0.0068224 0.00677434 0.0309936
internal_weight=628828 605911 217075 191221 388836 380465 294215 22917.1 25854 164458 74041.9 241077 213695 199572 71078.5 27382.5 90415.8 178802 155698 128287 105128 86635.4 55155.4 27411.3 86250 20940.5 46955.9 27103.7 4841.33 3253.39
internal_count=4824084 4576891 1763946 1590734 2812945 2763108 2179827 247193 173212 1398112 653821 1817638 1600558 1495690 633790 217080 744291 1330275 1164717 945096 778196 636165 412271 219621 583281 144315 349107 202843 40043 25743
is_linear=0
shrinkage=0.1


Tree=7
num_leaves=31
num_cat=0
split_feature=10 11 11 3 11 6 3 11 6 7 0 0 4 7 0 7 0 4 4 0 2 0 7 0 7 7 0 7 0 3
split_gain=10195.2 4707.12 5180.44 4019.78 1533.89 1274.63 1027.85 999.127 979.057 970.779 1587.68 1585.63 1239.31 1018.81 951.129 1159.92 1288.12 1078.78 957.912 926.715 881.356 880.325 876.055 837.382 1248.19 1213.24 813.095 975.924 1143.6 1087.76
threshold=-4103.569121388703 -0.0089795103541202553 0.0039594733220133975 44235.825000000012 -0.0044037212699895431 -0.0641880726894557 22937.450000000008 0.013495115488859647 0.082487047870933708 114.35650010756986 2973.5250000000005 2973.5250000000005 -159.61412089414691 183.85394577005982 5808.6250000000009 396.01086446985698 12737.025000000001 -723.19060396628345 -397.86090120920329 10306.675000000001 46.267107660395723 4937.6250000000009 620.58849562216108 4380.1250000000009 156.10670958797763 123.48611474348199 7715.6000000000013 322.08650859772814 15322.750000000002 8086.9500000000016
decision_type=2 2 2 2 2 2 2 2 2 2 2 2 2 2 2 2 2 2 2 2 2 2 2 2 2 2 2 2 2 2
left_child=6 8 3 4 -3 -5 -1 20 -2 11 12 -7 -11 21 18 19 17 -17 -15 -16 -4 -12 -18 25 -25 -6 -26 -28 -29 -30
right_child=1 2 7 5 23 9 -8 -9 -10 10 13 -13 -14 14 15 16 22 -19 -20 -21 -22 -23 -24 24 26 -27 27 28 29 -31
leaf_value=-0.089634004537513801 0.061299746130806847 0.0043535631894757289 0.054710802994392939 0.035813443906422639 -0.024661975926694592 -0.0045781582021141515 -0.042727778109511859 0.032922962870879036 0.025901591643572381 0.13252374673791675 -0.0060826744660935289 -0.047754581793527776 0.025085920855051298 0.1469013301299526 -0.0075642251852804671 0.13255974606772311 -0.026062862535336837 0.020036417426494937 0.016468850886823615 -0.046736302999120446 0.01030861406238563 -0.043272491395713313 0.0030204084238638377 -0.066642763065662691 -0.0025534130887743091 0.025944546773432376 -0.055645140121977459 0.0031223407707748523 -0.050147251587645908 -0.017093692921341021
leaf_weight=11904.703114248812 11056.953333564103 20836.044103898108 4683.5117918327451 9987.338848695159 13982.273801334202 52467.091530017555 7688.9224902689457 30553.532596580684 26636.522945135832 1157.5994173362851 23179.946883909404 10151.316427886486 14806.448622621596 573.4525031298399 35377.219520270824 879.17508654296398 12015.990594647825 27581.771157450974 31067.991394080222 7282.6361113116145 98227.062240161002 8774.2601214498281 75029.149876624346 8278.8507967665792 12603.95365101099 7164.8573096692562 12311.092399515212 11741.485461853445 18508.621738784015 21546.863029524684
leaf_count=146886 64518 160231 33363 71148 120282 412546 80108 189263 167829 7073 180992 87383 104489 3379 274513 5686 91712 195522 222149 58129 695113 76523 556876 78486 107653 56731 114323 101584 174403 185191
internal_value=-0.000227234 0.00205909 -0.000201195 -0.00546431 -0.020453 0.000668415 -0.0712271 0.0170438 0.0362852 -0.000500263 0.00241759 -0.0115777 0.0328765 0.00022493 0.003006 -0.000160174 0.00504416 0.0235123 0.0188327 -0.0142514 0.0123294 -0.0162946 -0.00099434 -0.0253228 -0.0297535 -0.00751599 -0.0257723 -0.0303373 -0.0243221 -0.0323669
internal_weight=628057 608463 570770 437305 126974 310331 19593.6 133464 37693.5 300344 237726 62618.4 15964 221762 189807 158166 115506 28460.9 31641.4 42659.9 102911 31954.2 87045.1 106138 84990.9 21147.1 76712 64108.1 51797 40055.5
internal_count=4824084 4597090 4364743 3447004 1098884 2348120 226994 917739 232347 2276972 1777043 499929 111562 1665481 1407966 1182438 849796 201208 225528 332642 728476 257515 648588 938653 761640 177013 683154 575501 461178 359594
is_linear=0
shrinkage=0.1


Tree=8
num_leaves=31
num_cat=0
split_feature=10 3 11 11 3 2 11 11 10 0 7 0 7 0 7 0 3 11 6 7 0 7 2 4 7 0 7 4 5 0
split_gain=8792.51 3835.88 3161.27 2364.52 1345.82 1168.83 1238.99 1105.06 1036.23 852.401 664.575 1284.2 970.845 1189.31 779.724 1511.9 837.078 621.109 620.083 607.188 575.369 652.097 497.757 487.704 461.326 460.268 709.139 633.391 455.05 703.804
threshold=-4103.569121388703 154117.70000000004 -0.0053967196996483743 0.0030871567492652741 41186.525000000016 34.387127051344258 0.0037722898537673609 -0.011474751313918015 -11035.722697911178 1978.5250000000003 99.952702805622977 4881.8000000000011 212.87576688096252 8761.4250000000011 477.73423482582007 18038.250000000004 5973.4000000000005 0.0091019744478666193 1.0000000180025095e-35 83.708615916496697 2973.5250000000005 144.16507022813542 47.929645955140053 -150.88860721481214 344.21833437637099 7165.2000000000016 293.74734378206512 -276.81821353446861 -20.307749707042678 3988.5750000000007
decision_type=2 2 2 2 2 2 2 2 2 2 2 2 2 2 2 2 2 2 2 2 2 2 2 2 2 2 2 2 2 2
left_child=8 2 7 4 9 28 -7 -2 -1 -4 -11 23 -13 24 -15 -16 -17 22 -9 -6 -21 -22 -5 -12 -14 27 -27 -23 29 -3
right_child=1 5 3 17 19 6 -8 18 -10 10 11 12 13 14 15 16 -18 -19 -20 20 21 25 -24 -25 -26 26 -28 -29 -30 -31
leaf_value=-0.094763571835406513 0.052734064191594425 0.069734071861407357 0.01900627832712589 0.036245328180272221 -0.028542610833027917 0.0029431141681934298 0.017192533943433615 0.040279610493145816 -0.047095716202845528 -0.052589257314959614 0.086468984329135745 -0.051989045221419096 -0.0015795927206443889 -0.046247522022761854 0.02255767048989045 -0.048649891661688524 -0.015767598333123013 0.027161315417809535 0.0058425323702997831 0.024589820112515426 -0.03010426283249075 0.096816963274023962 -0.0012474167703434688 0.0028206740533295548 0.051054042096894618 -0.037095677513278517 -0.0038879323713877801 0.0056251501593410982 0.011329387711016371 0.026424532693810194
leaf_weight=8174.0935201272368 7566.3387545794249 5127.4124616086483 4534.0925691351295 3903.3337850272655 11917.600352242589 175565.65424352884 93526.684069126844 6170.0131398290396 10315.606896132231 8201.877410441637 744.87774682790041 13381.683245487511 6462.1812943965197 16169.371791869402 6840.9073947072029 13110.964436158538 18904.655484527349 13111.955774597824 34274.461688600481 6306.6436133608222 10469.902419865131 791.08146135509014 38143.671358413994 10847.518855914474 2243.3553322702646 7402.016431838274 49001.164623498917 20477.900166466832 9570.8043553382158 13989.747831314802
leaf_count=115596 41721 31205 33076 29931 102316 1295157 625476 40689 111398 76768 5714 128187 56617 149703 58138 128707 166831 82787 240201 48838 92336 5272 291872 92137 18034 63628 379202 161029 62905 88613
internal_value=-0.000234036 0.00182935 -0.00593837 -0.0102465 -0.0151318 0.00994132 0.00789569 0.0176581 -0.0681692 -0.0233724 -0.0253552 -0.0228371 -0.0275022 -0.0223607 -0.0277943 -0.0201154 -0.0292335 0.00815887 0.0110961 -0.00727282 -0.00458899 -0.00667676 0.00223313 0.00819556 0.0119837 -0.00351882 -0.00824592 0.00901695 0.0291293 0.0380406
internal_weight=627248 608758 310978 262967 207808 297780 269092 48010.8 18489.7 101441 96907.4 88705.5 77113.1 63731.4 55025.9 38856.5 32015.6 55159 40444.5 106366 94448.7 88142.1 42047 11592.4 8705.54 77672.2 56403.2 21269 28688 19117.2
internal_count=4824084 4597090 2493734 2171123 1766533 2103356 1920633 322611 226994 913912 880836 804068 706217 578030 503379 353676 295538 404590 280890 852621 750305 701467 321803 97851 74651 609131 442830 166301 182723 119818
is_linear=0
shrinkage=0.1


Tree=9
num_leaves=31
num_cat=0
split_feature=10 11 11 3 11 6 7 0 7 1 0 7 0 4 7 0 7 4 4 4 10 11 4 3 0 0 6 0 1 7
split_gain=7597.54 3215.53 3451.24 2742.47 1221.64 970.996 838.158 1302.49 942.025 1224.22 1080.63 944.969 935.203 1136.34 1119.7 970.168 916.21 866.623 843.782 842.99 836.094 828.662 757.773 704.17 692.355 674.692 633.713 624.958 586.627 562.712
threshold=-4525.9858892805332 -0.0092741264169847321 0.0035012396127542399 42134.750000000022 -0.0040565400488972135 -0.018488990254054455 63.664627480614861 1842.7250000000001 154.10071812195548 4021.5499999999997 4327.6250000000009 259.23895159055451 8861.100000000004 -413.96116014575267 515.80370302212793 21206.250000000004 1041.5427090653066 -117.2037036493566 -1167.8798075487155 -221.23795509314093 -11035.722697911178 0.020758796224713567 -45.619102160505228 963.87500000000011 1464.45 41052.625000000007 0.082487047870933708 1934.8000000000004 7472.8333333333339 90.910294623976498
decision_type=2 2 2 2 2 2 2 2 2 2 2 2 2 2 2 2 2 2 2 2 2 2 2 2 2 2 2 2 2 2
left_child=20 26 3 4 23 -5 24 17 9 -9 19 28 13 -13 -14 18 -17 -8 -16 -10 -1 22 -4 -3 -7 -18 -2 -6 -12 -29
right_child=1 2 21 5 27 6 7 8 10 -11 11 12 14 -15 15 16 25 -19 -20 -21 -22 -23 -24 -25 -26 -27 -28 29 -30 -31
leaf_value=-0.092874082906768532 0.050902290512129682 0.049537578465835834 0.040782192952852486 0.023431187515705953 0.015130948382248653 -0.0073839622918963552 0.15742574621974428 -0.0050612782050497565 0.090117698673224694 -0.042417639447211525 -0.0092711657783248417 0.087892787231906924 -0.0205112092917588 0.012489592051655866 0.12706428872002326 -0.029453420533721953 0.018808919403365994 0.027403840060621881 0.014358357746965495 0.016900496545635385 -0.046733641138375553 0.036784800861157423 0.0086763900982107373 -0.0038367310502578711 -0.043237759383586157 -0.0073132834503027962 0.02188741155970364 -0.053467515693098905 -0.042622584945604239 -0.022487922855543185
leaf_weight=7539.1042350456119 10725.467419832945 2802.1496470943093 7803.0492062717676 16881.94380197674 4129.2487603500485 16877.425054736435 538.19661527127028 40869.164150461555 1695.1425335258245 11170.334326341748 24572.352815292776 2131.0019101500511 24687.566435813904 32171.609236687422 677.36058900505304 11799.475008137524 15361.499133326113 10787.620278216898 34338.70891392231 21738.707895055413 8197.5661846026778 13203.458714827895 127017.42811852694 20966.59936222434 7910.1937169730663 27746.810410037637 25246.05546207726 6303.8182012960315 6715.1800027266145 83883.256491646171
leaf_count=115596 59201 19426 55079 118424 30137 136164 3094 319689 9864 100860 193108 13346 191199 231975 4513 92563 113507 79822 243748 152426 92932 77172 877854 165523 67053 207465 154415 61802 58166 777961
internal_value=-0.000233535 0.00153415 -0.000281045 -0.0048447 -0.0178055 0.000113578 -0.0012355 0.00039751 -0.00107251 -0.0130799 0.001996 -0.000630964 0.00268834 0.0171739 -0.00164711 0.00353181 -0.00476293 0.0335824 0.0165386 0.0221968 -0.0688385 0.0128761 0.0105346 0.00245568 -0.0188256 0.00199527 0.0305386 -0.0229115 -0.0164293 -0.0246533
internal_weight=626487 610751 574779 426755 118085 308670 291788 267001 255675 52039.5 203635 180202 148914 34302.6 114611 89923.9 54907.8 11325.8 35016.1 23433.9 15736.7 148024 134820 23768.7 24787.6 43108.3 35971.5 94316.3 31287.5 90187.1
internal_count=4824084 4615556 4401940 3391835 1054849 2336986 2218562 2015345 1932429 420549 1511880 1349590 1098316 245321 852995 661796 413535 82916 248261 162290 208528 1010105 932933 184949 203217 320972 213616 869900 251274 839763
is_linear=0
shrinkage=0.1


Tree=10
num_leaves=31
num_cat=0
split_feature=10 3 11 11 3 0 7 11 0 2 11 7 0 7 10 7 0 6 1 11 7 0 7 0 7 0 0 0 7 1
split_gain=6603.95 2658.62 2220.78 1687.6 1021.79 946.744 798.965 797.559 780.902 779.623 858.454 768.557 704.193 801.361 630.725 572.974 1008.89 558.482 549.966 540.764 527.9 473.72 929.314 572.073 678.577 529.271 473.953 470.806 447.978 854.535
threshold=-5075.1066564184157 154117.70000000004 -0.0052060756660907504 0.0024283001662567844 16908.075000000001 5743.1500000000005 152.06086031740139 -0.013023924212991105 1366.0250000000003 33.632254084744467 0.0064694651920884092 89.136569862542729 3302.0500000000006 148.10948556911987 -17728.219339622523 249.71281830169116 12020.300000000003 -0.028148884694018984 2720.9583333333339 0.0082137596704336003 457.22273935920572 5808.6250000000009 243.60122716790715 8445.0750000000025 477.73423482582007 13109.875000000002 16412.550000000007 5050.6250000000009 344.21833437637099 6635.6666666666688
decision_type=2 2 2 2 2 2 2 2 2 2 2 2 2 2 2 2 2 2 2 2 2 2 2 2 2 2 2 2 2 2
left_child=14 2 7 4 5 6 8 -2 -4 -3 28 18 -13 27 -1 -7 20 -9 -6 -5 -17 -15 -23 -24 25 -25 -26 -14 29 -11
right_child=1 9 3 19 11 15 -8 17 -10 10 -12 12 13 21 -16 16 -18 -19 -20 -21 -22 22 23 24 26 -27 -28 -29 -30 -31
leaf_value=-0.094887137504160168 0.050642592858085402 0.024341939562544754 0.045706871315006808 -0.00038475499713933097 -0.01736368063372656 -0.058917949592316714 0.029427526196370291 0.038944774369458993 -0.034904021838600002 0.0020208533530368836 0.016432290086545343 0.019271036938520933 -0.020639788850663636 0.01081563241287343 -0.050774079198909132 -0.0086572131850324672 -0.03576638063346909 0.0054327813508188464 -0.056060061899395441 0.02064924229897433 0.06014637839687962 -0.03432275634544537 0.019019068369696985 -0.013103338597038078 0.018223429086623218 -0.050903456445053154 -0.006560381353809739 -0.063847768758359444 0.0084584973157184589 -0.02635893103872532
leaf_weight=5846.6010254994035 5249.0576045140624 26471.883772552013 1446.8608025312424 50499.803882144392 12402.654092684388 7256.9623555168509 4894.4794445112348 5663.4591339305043 7093.3210940510035 105780.85329854488 64892.66011223942 9768.3449923843145 9416.1880090758204 14809.152196161449 7273.3453675471246 3707.9449844062328 26385.113848216832 40783.338842913508 5217.9669765233994 16125.523026019335 1594.749309360981 12023.545710586011 9183.3381924256682 12596.357232607901 9835.4144988432527 5247.2060694396496 35809.69482178241 3444.2517802342772 93146.760042130947 11792.728303007782
leaf_count=97330 27280 161934 9639 397057 110182 75910 38750 35849 67376 789658 410831 77229 86246 115618 92091 35675 263370 282543 51536 100713 13302 110538 72368 106529 74279 45318 287367 35785 657958 93823
internal_value=-0.000232545 0.00127105 -0.00522765 -0.00900801 -0.0137636 -0.0256755 -0.00278545 0.0136946 -0.0212471 0.00794981 0.00637539 -0.00929907 -0.00648231 -0.00872115 -0.070432 -0.0335718 -0.0277672 0.00951904 -0.0288228 0.00470616 0.012035 -0.00568514 -0.00857032 -0.0043096 -0.00768398 -0.0242191 -0.00122007 -0.0322116 0.0032783 -0.000825663
internal_weight=625660 612540 310455 258759 192134 52379.4 13434.7 51695.9 8540.18 302085 275613 139754 122133 112365 13119.9 38944.8 31687.8 46446.8 17620.6 66625.3 5302.69 99504.7 84695.6 72672 63488.7 17843.6 45645.1 12860.4 210720 117574
internal_count=4824084 4634663 2520459 2174787 1677017 504022 115765 345672 77015 2114204 1952270 1172995 1011277 934048 189421 388257 312347 318392 161718 497770 48977 812017 696399 585861 513493 151847 361646 122031 1541439 883481
is_linear=0
shrinkage=0.1


Tree=11
num_leaves=31
num_cat=0
split_feature=10 11 11 3 11 10 0 4 7 0 7 4 0 7 4 0 7 0 4 3 2 11 10 0 7 0 7 0 7 0
split_gain=5729.7 2259.77 2361.37 2112.12 948.147 840.06 846.083 1360.16 1326.04 626.987 1176.53 739.941 717.196 1225.57 1102.9 878.477 871.601 937.599 785.025 557.878 552.096 567.506 543.377 1097.34 748.828 882.645 797.568 1270.79 980.577 706.299
threshold=-5764.261956827012 -0.0099738719794140781 0.0053658471246184709 44235.825000000012 -0.0041244490946666544 -913.91877588163516 2603.8750000000005 -117.2037036493566 140.2064993162785 4650.1250000000009 237.59864925948605 -329.540057260212 9646.725000000004 531.14754068753666 -561.52792195525387 22670.350000000002 1391.427529361056 53414.000000000007 -1167.8798075487155 963.87500000000011 49.22100873208835 0.023262473133097501 -1134.4329194566803 4380.1250000000009 190.74995338342771 8761.4250000000011 484.89745679933111 23208.400000000005 1156.5382247223868 45638.750000000007
decision_type=2 2 2 2 2 2 2 2 2 2 2 2 2 2 2 2 2 2 2 2 2 2 2 2 2 2 2 2 2 2
left_child=-1 -2 3 4 19 -5 7 -7 -8 11 -11 -10 14 -14 -12 18 -17 -18 -15 -3 -4 -22 -6 -24 -25 -26 -27 -28 -29 -30
right_child=1 2 20 5 22 6 8 -9 9 10 12 -13 13 15 -16 16 17 -19 -20 -21 21 -23 23 24 25 26 27 28 29 -31
leaf_value=-0.072490457197982028 0.027497843279277359 0.043279885555352074 0.040292632867707845 -0.013407695392064429 -0.039039513393299474 0.088674262856351813 -0.02198079987993061 0.011476004144685517 0.12144793752676114 -0.019881349050139274 0.10561169794430719 0.012689127934264181 -0.020864768662424992 0.10077107728025213 0.010683601763991489 -0.019936191695201257 0.024888668160043564 -0.0069097907165569092 0.012752619386203375 -0.0023556092878757751 0.0086319615649159409 0.033621662711053227 0.009507285998043298 -0.045404250166540379 0.0077136645065453624 -0.040261906075159518 0.013757171025049118 -0.050126306824107528 0.030658084070024457 -0.020893470322623887
leaf_weight=10783.118659142405 30671.782130934298 3045.8929026722908 6938.8757095560431 37570.28941962868 11405.662817977369 2440.8076689019799 23961.88770172745 35148.983244471252 636.28791509568691 24903.959207952023 1252.4685673266649 37098.361499749124 24621.553118236363 1038.3043463602662 53670.291243262589 21574.830715633929 14867.037276335061 24642.185560032725 42069.641510844231 22224.240628160536 90842.861441977322 10097.716945454478 14363.791429318488 10502.453401364386 12153.545584581792 16789.596220351756 11494.441911205649 10375.627030871809 3256.8250256106257 14446.981463290751
leaf_count=171302 175768 20049 44961 322375 115712 14341 198131 254818 3347 207407 7293 260415 191969 6462 386082 166250 107302 182018 293982 173498 591703 57286 118069 108419 105847 165963 101032 102527 30362 139394
internal_value=-0.000227781 0.00104108 -0.000349777 -0.00337986 -0.0142419 0.000709047 0.00243144 0.0164887 0.000476805 0.00266098 0.000515613 0.014523 0.00328026 -0.000799337 0.0128484 0.00394231 -0.00377139 0.00505574 0.0148726 0.00314499 0.0130075 0.0111318 -0.0184348 -0.0159181 -0.0205399 -0.0167286 -0.021999 -0.0142508 -0.025716 -0.01141
internal_weight=624890 614107 583435 475556 130059 345497 307927 37589.8 270337 246375 208640 37734.6 183736 128814 54922.8 104192 61084.1 39509.2 43107.9 25270.1 107879 100941 104789 93383.3 79019.5 68517 56363.5 39573.9 28079.4 17703.8
internal_count=4824084 4652782 4477014 3783064 1180872 2602192 2279817 269159 2010658 1812527 1548765 263762 1341358 947983 393375 756014 455570 289320 300444 193547 693950 648989 987325 871613 753544 645125 539278 373315 272283 169756
is_linear=0
shrinkage=0.1


Tree=12
num_leaves=31
num_cat=0
split_feature=10 10 0 7 0 7 4 0 7 4 7 0 0 7 0 0 7 0 3 4 6 0 7 7 1 1 0 6 7 1
split_gain=4968.82 1868.43 2493.25 2992.12 2472.21 2823.75 2370.27 2153.04 2809.93 2138.62 1653.42 1507.11 1385.68 1794.54 1324.78 1103.32 978.432 948.688 882.047 772.125 732.443 697.336 631.284 627.447 616.215 597.368 558.573 529.637 514.49 618.163
threshold=-5764.261956827012 -1134.4329194566803 3012.3750000000005 186.16506616956386 7430.5750000000016 384.78788577453128 -131.10634407442737 20737.000000000004 961.05876548189792 -382.70359404826826 784.37167282148857 5475.0750000000007 38643.750000000007 2008.0959201067556 12737.025000000001 11194.500000000002 110.86223735962155 60576.250000000007 9216.475000000004 -863.07219607194918 0.27163158165189821 2771.8750000000009 1466.9274393639059 276.07178338122429 31794.058333333345 57915.833333333343 4593.1250000000009 -0.028148884694018984 3461.4450702005429 127538.33333333336
decision_type=2 2 2 2 2 2 2 2 2 2 2 2 2 2 2 2 2 2 2 2 2 2 2 2 2 2 2 2 2 2
left_child=-1 21 6 11 9 15 -3 10 24 -5 14 16 22 25 -7 -6 -4 -15 20 -12 -8 -2 -10 26 -9 -14 -11 -20 -19 -30
right_child=1 2 3 4 5 7 18 8 12 23 19 -13 13 17 -16 -17 -18 28 27 -21 -22 -23 -24 -25 -26 -27 -28 -29 29 -31
leaf_value=-0.069696706395930216 -0.010676789207699433 0.073988630090357929 -0.041279928887922611 0.075033088791302854 -0.016162654088110687 0.014538376903281431 0.093846103462299185 -0.02738118743129352 0.0041317924480825949 0.017032679497136074 0.067025433644029006 -0.050011660640020342 -0.019806205859799541 0.028397084296047162 -0.010860348228186163 -0.052414511842230505 -0.0058149475263133202 -0.021626582781448828 0.052772267827493592 0.02346652922620952 0.026231208041697898 -0.037997258667661897 0.030316344217028213 0.019993163499515743 -0.062424119481236211 -0.054566457290152574 -0.0037148715169207759 0.0080794487349216803 0.021801426493284926 -0.0096289594734891987
leaf_weight=10128.174227897078 32077.88616823405 6857.4331343322992 9611.1161689758301 5700.1055980324745 33279.461755737662 47997.451523959637 2171.179059125483 16715.848474748433 21107.879450172186 21666.086142666638 4624.1864164844155 13668.559307850897 13578.999082230031 10818.089692927897 35893.610585182905 11227.873784981668 40811.537223130465 12670.893899530172 2747.7389918714762 33921.076880387962 6112.3760287463665 13181.674578920007 16331.0128127262 52030.864453405142 7170.5761249884963 7774.6439139246941 32352.684561900795 75760.507325768471 10425.366297774017 15652.546084620059
leaf_count=171302 278646 38170 88334 31711 281015 331811 12740 141843 157877 144452 27551 137361 110494 75747 276539 107407 324491 101448 16968 222552 39534 135771 109143 341686 68643 69778 250061 534623 74593 121793
internal_value=-0.000225024 0.000921053 0.00247736 -0.000462591 0.0026717 -0.00206858 0.0173901 0.00199264 -0.00685425 0.0153629 0.0115483 -0.020559 -1.04195e-05 -0.00822666 0.00367128 -0.0253079 -0.012575 0.00221406 0.0129183 0.0286922 0.0439536 -0.0186338 0.0155536 0.0121557 -0.0379009 -0.0324621 0.00460665 0.00964367 -0.00509585 0.00293621
internal_weight=624067 613939 568680 475030 410939 299190 93649.2 254682 132246 111750 122436 64091.2 108359 70920.5 83891.1 44507.3 50422.7 49566.9 86791.8 38545.3 8283.56 45259.6 37438.9 106050 23886.4 21353.6 54018.8 78508.2 38748.8 26077.9
internal_count=4824084 4652782 4238365 3596330 3046144 2278234 642035 1889812 1031359 767910 858453 550186 820873 553853 608350 388422 412825 373581 603865 250103 52274 414417 267020 736199 210486 180272 394513 551591 297834 196386
is_linear=0
shrinkage=0.1


Tree=13
num_leaves=31
num_cat=0
split_feature=10 10 0 7 4 0 7 0 7 4 7 0 7 1 7 0 3 0 0 6 7 4 0 4 1 7 7 0 0 7
split_gain=4346.96 1806.29 1962.64 3162.12 2433.86 1887.05 2638.41 1801.72 2233.37 1606.56 1192.46 1191.99 1259.2 1160.32 931.871 919.352 873.098 821.201 778.416 679.612 678.154 657.889 627.223 572.396 620.801 546.72 536.852 1158.51 496.589 538.648
threshold=-8281.61510058571 -1291.8424916221854 3943.8500000000004 218.07364800225642 -134.76400407488742 9183.1500000000015 477.73423482582007 23758.500000000004 1236.8609392913477 -413.96116014575267 811.26601744610377 55610.700000000012 2445.300483867984 6969.4333333333343 138.28093683172241 13109.875000000002 5497.1499999999996 35348.750000000007 14813.000000000002 0.24511992971356755 305.84237288633273 -993.61790656547771 2771.8750000000009 -249.83547351799686 1965.4583333333339 756.08922168713968 107.30184068451982 1842.7250000000001 91802.500000000015 4892.1142736370539
decision_type=2 2 2 2 2 2 2 2 2 2 2 2 2 2 2 2 2 2 2 2 2 2 2 2 2 2 2 2 2 2
left_child=-1 22 4 13 23 9 15 10 17 -5 18 -10 -13 14 -4 -7 19 25 -8 -6 -11 -12 -2 -3 -25 -9 27 -18 -14 -30
right_child=1 2 3 5 16 6 7 8 11 20 21 12 28 -15 -16 -17 26 -19 -20 -21 -22 -23 -24 24 -26 -27 -28 -29 29 -31
leaf_value=-0.07971844344926364 -0.011263246412897597 0.087770881512249779 -0.042166832105756995 0.057042163080979882 0.08481828590738788 -0.015677777749098423 0.011605446706590189 -0.047494097246613881 0.014402933543024821 0.00039488440168427625 0.059212913798826428 -0.037701511463939498 0.01722345488011004 -0.051191614833457626 -0.0080254842828489017 -0.047955601147620985 0.012048491470170595 -0.053763679392363643 -0.011962347045816576 0.022387549974017117 0.016499999639600003 0.01956903766610979 -0.037702451991991758 0.12994782055470183 0.033575943958348002 -0.008725243693044232 0.011508853608716965 -0.017812429068731067 -0.027503401062389896 0.0031096413866603285
leaf_weight=6804.2712279818952 30073.27217489481 3472.6824841946363 10406.429810874164 7649.2494336515665 2255.7954069375992 26988.635132670403 34223.014407940209 4873.7952463254333 38288.187649071217 45744.0587798208 4685.1184773370624 11750.106687650084 11421.747537821531 11787.384926609695 34493.862547025084 13110.861766882241 27757.810102432966 10114.463579043746 23733.114004611969 7680.4405510127544 61026.126534044743 39294.27077421546 12788.29225294292 720.88479094207287 9185.0774842128158 14339.448675610125 69110.33804024756 24425.002012223005 9003.3921408504248 15894.632701024413
leaf_count=134085 274164 17821 102955 43001 12977 227678 234073 46133 271531 342464 27292 102335 82331 121986 284730 124909 194091 97212 185413 49731 406199 259787 140839 3590 54744 115810 474510 197439 74477 119777
internal_value=-0.000227463 0.000650162 0.00213026 -0.00126704 0.0122048 0.00208446 -0.00266029 0.00168296 -0.00685817 0.0127716 0.0113762 0.00123891 -0.00924637 -0.0232688 -0.0159383 -0.0262313 0.00806245 -0.0307007 0.0019544 0.036561 0.00960001 0.0237923 -0.0191517 0.0528361 0.0405892 -0.0185597 0.00572787 -0.00192839 -4.0621e-05 -0.00796036
internal_weight=623102 616297 573436 428828 144608 372140 257721 217621 115686 114419 101936 86358.1 48069.9 56687.7 44900.3 40099.5 131229 29327.7 57956.1 9936.24 106770 43979.4 42861.6 13378.6 9905.96 19213.2 121293 52182.8 36319.8 24898
internal_count=4824084 4689999 4274996 3270093 1004903 2760422 1968758 1616171 909606 791664 706565 650451 378920 509671 387685 352587 928748 259155 419486 62708 748663 287079 415003 76155 58334 161943 866040 391530 276585 194254
is_linear=0
shrinkage=0.1


Tree=14
num_leaves=31
num_cat=0
split_feature=10 6 10 0 7 0 7 0 7 4 4 1 7 4 1 0 0 7 7 0 0 7 2 0 7 3 7 0 0 7
split_gain=3807.59 1559.45 1385.57 1722.56 2006.43 1539.61 1894.79 1631.83 2151.95 1332.64 1321.78 1179.64 1954.3 1143.7 970.933 894.353 844.101 671.767 663.076 595.521 592.527 564.304 536.996 526.678 525.437 518.454 484.352 480.927 444.699 432.061
threshold=-8281.61510058571 -0.051389066936425414 -984.44021431557269 2730.0750000000003 158.05606492211703 5411.1250000000009 297.77451854138349 13305.500000000002 620.58849562216108 -723.19060396628345 -117.2037036493566 31794.058333333345 1594.7359728964082 -329.540057260212 9444.0833333333339 4650.1250000000009 60576.250000000007 942.21547008710706 2799.965561084879 49385.000000000007 2895.3250000000003 491.77099415888466 21.163006884462703 21206.250000000004 53.695764105151966 9216.475000000004 94.49391880828685 1514.8750000000002 106609.07500000001 4892.1142736370539
decision_type=2 2 2 2 2 2 2 2 2 2 2 2 2 2 2 2 2 2 2 2 2 2 2 2 2 2 2 2 2 2
left_child=-1 22 20 10 15 13 14 9 23 -8 -4 17 19 -6 -7 26 -14 -10 -18 -13 24 -11 -2 -9 27 -12 -5 -3 -20 -30
right_child=1 2 3 4 5 6 7 8 11 21 25 12 16 -15 -16 -17 18 -19 28 -21 -22 -23 -24 -25 -26 -27 -28 -29 29 -31
leaf_value=-0.077356168305768552 0.065681748152158922 -0.012383195113213239 0.058362722429932623 -0.041804223923485671 0.069712395473459018 -0.01354594373060416 0.065768455693451633 -0.02485785111075603 -0.0019376690799312582 0.0021271526063758464 0.036417981503596257 -0.023086998784626833 0.017543580189154907 0.011075937671033244 -0.050479215643138932 -0.046800159680908282 -0.029735448520911735 0.017123348985299335 0.016591104930431696 -0.058720235723156627 -0.034886126410952067 0.016705231416630554 0.020541275635772804 -0.061916822447502379 0.0033561360898240709 0.0080671023883241381 -0.0086342089419068468 -0.049594131513609335 -0.032603363796573491 0.0003347262103752574
leaf_weight=6335.2704373858869 3072.4971715956926 15087.77756138891 6466.9057858139277 5156.0158825740218 3483.3903302401304 41449.688421018422 4223.967441290617 20412.033775098622 32869.675243780017 60641.640541538596 7211.8421645537019 17750.852584339678 20682.128129765391 73819.635049216449 8593.6727876067162 10443.344727054238 9932.3678418174386 42262.943753361702 10571.375391148031 6374.402966029942 12931.377963744104 47236.026565410197 18522.840679235756 4722.1118530333042 16284.027794606984 61081.024814873934 30110.38818345964 4511.929038695991 5509.1162903159857 14370.789622679353
leaf_count=134085 18270 133694 34425 48609 17763 352884 23099 176565 247712 445247 43149 153847 145370 499018 88731 112186 85736 281395 76023 63903 144297 304241 134786 48321 141360 424183 242388 46495 47134 109168
internal_value=-0.000226763 0.000566753 -0.00039262 0.00105209 -0.00118787 0.000953722 -0.00188495 0.00114284 -0.00461466 0.0106679 0.0151527 -0.000349588 -0.00840511 0.0137182 -0.0198883 -0.0210956 0.00111487 0.00878437 -0.00729895 -0.0325021 -0.0165333 0.00851041 0.0269637 -0.0318204 -0.0099195 0.011061 -0.0134837 -0.0209493 1.92227e-05 -0.00879307
internal_weight=622121 615786 594190 545375 470616 424906 347603 297559 185458 112102 74759.8 160324 85191 77303 50043.4 45709.7 61065.8 75132.6 40383.6 24125.3 48815.1 107878 21595.3 25134.1 35883.7 68292.9 35266.4 19599.7 30451.3 19879.9
internal_count=4824084 4689999 4536943 4071097 3569340 3166157 2649376 2207761 1435174 772587 501757 1210288 681181 516781 441615 403183 463431 529107 318061 217750 465846 749488 153056 224886 321549 467332 290997 180189 232325 156302
is_linear=0
shrinkage=0.1


Tree=15
num_leaves=31
num_cat=0
split_feature=10 10 6 0 7 0 7 0 7 4 0 1 4 7 0 7 4 2 0 7 0 1 7 1 7 0 7 7 7 7
split_gain=3337.8 1347.48 1460.93 1261.49 1601.49 1611.72 1571.68 1428.34 1687.37 1207.97 1204.49 1195.08 1161.47 760.272 759.641 1147.81 710.29 564.833 533.874 524.988 507.228 504.52 503.485 497.745 496.679 645.558 492.458 461.265 449.33 409.002
threshold=-11035.722697911178 -1291.8424916221854 -0.0087173405164707625 2436.5500000000006 186.16506616956386 6673.1250000000009 431.45987553308595 20737.000000000004 981.37529385142363 -85.831618193191716 12375.075000000003 5771.1416666666655 -329.540057260212 99.952702805622977 42460.000000000007 2008.0959201067556 -921.97278362699933 23.835079537863439 2054.2750000000005 293.74734378206512 76704.150000000009 30921.883333333335 73.080591808915912 4964.3666666666677 74.839238717366626 1414.8 43.068109912007031 1507.6123544886991 3929.3410190001605 1183.0998952358289
decision_type=2 2 2 2 2 2 2 2 2 2 2 2 2 2 2 2 2 2 2 2 2 2 2 2 2 2 2 2 2 2
left_child=-1 18 17 9 11 12 10 16 21 -4 19 13 29 -5 27 -16 -8 -3 26 -7 -17 -9 -20 -24 25 -11 -2 -10 -22 -6
right_child=1 2 3 4 5 6 7 8 14 24 -12 -13 -14 -15 15 20 -18 -19 22 -21 28 -23 23 -25 -26 -27 -28 -29 -30 -31
leaf_value=-0.082216306550469076 -0.019923759467525403 0.049867430294589163 0.050228436354499861 -0.033640387695441247 0.059464670804273846 -0.021912408371428521 0.045197471048936157 -0.020470065695237148 0.00043757309219350036 0.0097217288318326156 -0.047292258410166155 -0.045566540573881611 0.0096743286768897173 -0.0049163936801979715 -0.031465543876489636 0.014847631146540967 0.0079776095862826319 0.016153965801505146 -0.051964565875839676 -0.0021138693475328402 -0.02555842895364191 -0.052858202083519004 -0.0060218181964415939 -0.050125586629563249 0.015738453412108788 -0.025684030682796472 0.0093047825404194342 0.021749643334416646 0.0010198134659593712 -0.067870579939474041
leaf_weight=4925.4937454015017 12505.62809368968 6328.8390871658921 7877.7054516971111 10919.120190635324 6020.9028074368834 22427.830088146031 5388.2766494080424 14756.003486171365 22408.326871134341 14026.523116447031 10314.979152731597 10509.324531964958 90703.987907364964 59031.023521922529 15056.288353458047 15822.902583181858 105848.63427339494 23137.235591545701 6371.332806289196 33247.420147992671 9282.6634210571647 7135.2305242195725 9656.7197645418346 3481.4579886421561 36120.599640578032 8137.3539407476783 10693.573820725083 18572.527816578746 20208.162991203368 263.27847746014595
leaf_count=115596 120258 37108 44150 101952 31604 207014 29965 129432 168639 96823 106544 117175 610899 466237 137369 112214 725198 164844 76214 255511 79098 74834 99642 44467 240301 62380 92911 120980 153437 1288
internal_value=-0.000223346 0.000431994 0.00170801 0.000533487 -0.00125811 0.00134643 -0.0022715 0.00156531 -0.00584966 0.0134749 -0.0159046 -0.0141241 0.0125548 -0.00940017 -0.000411563 -0.00754453 0.00978053 0.0233951 -0.0167039 -0.0100894 0.00040365 -0.0310267 -0.0288959 -0.0177088 0.00850731 -0.00327731 -0.00645099 0.0100962 -0.00734607 0.0541299
internal_weight=621179 616254 573545 544079 477917 397457 300469 234479 123242 66162.2 65990.2 80459.5 96988.2 69950.1 101351 60370 111237 29466.1 42708.7 55675.3 45313.7 21891.2 19509.5 13138.2 58284.5 22163.9 23199.2 40980.9 29490.8 6284.18
internal_count=4824084 4708488 4274996 4073044 3629390 2944026 2300235 1731166 976003 443654 569069 685364 643791 568189 771737 482118 755163 201952 433492 462525 344749 204266 220323 144109 399504 159203 213169 289619 232535 32892
is_linear=0
shrinkage=0.1


Tree=16
num_leaves=31
num_cat=0
split_feature=10 10 0 7 0 7 4 4 0 7 7 0 0 0 0 0 7 0 7 4 7 7 7 0 0 4 7 0 7 7
split_gain=2936.71 1125.5 1573.9 1651.89 1197.85 2001.57 1247.32 1102.6 1018.55 1742.28 1012.82 803.774 795.937 731.407 625.122 623.194 859.026 608.962 656.602 616.135 497.394 495.87 491.158 773.115 464.801 464.598 447.925 426.528 408.383 398.023
threshold=-11035.722697911178 -483.83175424792358 3302.0500000000006 179.51267884193791 8761.4250000000011 437.91950717466847 -276.81821353446861 -174.17472750170688 26992.750000000004 1236.8609392913477 784.37167282148857 3486.4750000000008 16412.550000000007 5941.7500000000009 13109.875000000002 55610.700000000012 2548.1557020221048 1414.8 90.910294623976498 -72.525628880062968 293.74734378206512 123.48611474348199 63.664627480614861 1514.8750000000002 47461.975000000006 -1071.8932246262209 301.81615106374289 4995.625 650.92134845483019 1937.0298685912815
decision_type=2 2 2 2 2 2 2 2 2 2 2 2 2 2 2 2 2 2 2 2 2 2 2 2 2 2 2 2 2 2
left_child=-1 11 7 13 6 14 -5 -3 10 24 12 22 -7 21 26 29 -17 19 -19 -9 27 -4 23 -2 -10 -12 -6 -8 -20 -11
right_child=1 2 3 4 5 8 20 17 9 15 25 -13 -14 -15 -16 16 -18 18 28 -21 -22 -23 -24 -25 -26 -27 -28 -29 -30 -31
leaf_value=-0.080094931801775737 -0.004504391716201892 0.058421565031587214 -0.033223248312099739 0.034220204384380455 -0.034554630386935153 0.0053271301484289083 0.0087935005128950069 0.086521234979257997 -0.026011026251736416 0.00087069462683733831 0.043678761319516819 -0.034912088903634224 -0.018819138134571714 -0.047406413637548238 -0.047138870883222647 -0.030294889412430488 0.00059635740864451108 -0.012642738303894483 0.01308073218398686 0.022494752941921485 0.012102780672099453 -0.0061989174346123582 0.00370977320743094 -0.037835443691943117 -0.06801990777497495 0.01364555518961102 -0.0077961667822825167 -0.0072260976515942897 -0.054087930196417201 0.022562250901015473
leaf_weight=4568.8643802292645 22567.164224825799 5243.7799083665013 9125.899110943079 17025.235738500953 9409.0416303277016 49417.712081819773 28860.456646367908 1720.0527208894491 17781.144782602787 19269.889018751681 5703.0116010382771 12155.192162275314 18861.993453234434 7535.447501949966 8930.3709809035063 12095.784007541835 35194.077478051186 13189.780083470047 58138.905123762786 11910.134975805879 59192.665122814476 26524.351824887097 25655.95052010566 10061.695558808744 3091.7792233154178 53193.914568476379 18666.831847578287 39189.395446911454 919.49348613619804 15078.268819369376
leaf_count=115596 192500 26053 89418 97854 96388 342738 193828 9326 165344 143419 32033 142859 160351 87875 95818 110876 268044 99860 384894 75318 385605 220633 214522 106178 35606 350301 154673 322257 5688 98229
internal_value=-0.000218079 0.000374646 0.00191135 -0.000495211 0.00145985 -0.00251096 0.00880031 0.0139055 0.000966384 -0.00645085 0.00694506 -0.0115208 -0.00134318 -0.0190999 -0.0240939 0.00014118 -0.00730499 0.0111873 0.00752975 0.0305745 0.00539909 -0.0131167 -0.00664259 -0.0147826 -0.0322335 0.0165537 -0.0167637 -0.000432065 0.012035 0.0103929
internal_weight=620278 615709 545269 454147 410962 266694 144268 91122.1 229688 102511 127177 70440 68279.7 43185.7 37006.2 81638 47289.9 85878.4 72248.2 13630.2 127243 35650.3 58284.8 32628.9 20872.9 58896.9 28075.9 68049.9 59058.4 34348.2
internal_count=4824084 4708488 4052429 3451290 3053364 2053820 999544 601139 1706941 821518 885423 656059 503089 397926 346879 620568 378920 575086 490442 84644 901690 310051 513200 298678 200950 382334 251061 516085 390582 241648
is_linear=0
shrinkage=0.1


Tree=17
num_leaves=31
num_cat=0
split_feature=10 6 10 0 7 0 7 0 7 4 0 7 1 4 1 0 7 0 7 4 0 7 7 4 1 0 1 5 7 7
split_gain=2579.93 1091.27 915.434 1375.46 876.757 1194.07 1478.54 1125.23 1371.14 907.557 902.591 1425.15 810.501 747.901 665.065 660.06 686.685 599.226 578.999 569.602 510.012 514.725 506.856 501.447 484.738 383.235 377.718 363.999 362.904 353.133
threshold=-11035.722697911178 -0.094727802480640236 -368.05109078322965 2019.575 132.86726980581753 5411.1250000000009 318.09502960840376 11856.750000000002 620.58849562216108 -249.83547351799686 33513.750000000007 1641.9019531212978 10619.625000000002 -619.12701653995452 4021.5499999999997 2054.2750000000005 74.839238717366626 18393.200000000004 55.84585377710895 -85.831618193191716 72624.400000000009 3461.4450702005429 215.43033924304936 -1274.7266218456996 5018.5000000000009 163553.45000000004 53340.416666666664 -64.893405297866934 6525.7038100673053 905.13641651133787
decision_type=2 2 2 2 2 2 2 2 2 2 2 2 2 2 2 2 2 2 2 2 2 2 2 2 2 2 2 2 2 2
left_child=-1 -2 15 19 14 9 12 13 17 27 23 26 22 -8 -5 18 -17 -9 -3 -4 -13 -22 -7 -10 -18 -23 -12 -6 -27 -11
right_child=1 2 3 4 5 6 7 8 10 29 11 20 -14 -15 -16 16 24 -19 -20 -21 21 25 -24 -25 -26 28 -28 -29 -30 -31
leaf_value=-0.077911413860105208 0.027808740135889465 -0.011982279651430632 0.052957604693858198 -0.0082407811850580461 0.077855977799516876 -0.02613402442475515 0.04790360411907215 -0.014115122881023463 0.037225207598343961 0.0082624056702919665 -0.021791565190524484 0.011189459753494078 -0.05043271200202544 0.0082996377674241523 -0.041807698714216961 -0.046468690191960427 -0.0059903341804093792 -0.045884667068345597 0.012583872263099708 0.015765840694896827 -0.026951097876249153 0.012411399270589586 -0.0054801900637268895 0.0057288136802824572 -0.042149286409896083 -0.043363643829848066 -0.053055132541118377 0.029678483776476125 -0.0022814581082505228 -0.048203576177737628
leaf_weight=4244.0991104505956 14114.657494034618 24473.39864885062 4912.1811469569802 28842.944788500667 2156.1741907149553 17506.719328433275 5056.2976401820779 25676.810181431472 5378.3328769505024 99909.86772634089 15760.15995965153 26648.172357864678 6142.9536033496261 83726.803528100252 7421.3030697032809 8239.3913896530867 19200.299508407712 7722.6727725937963 15780.273248899728 25467.546653091908 9568.9630057141185 12663.36703902483 36980.524149619043 84027.087002880871 4594.6511711962521 2911.122731000185 5119.9008390307426 5751.2946010902524 8226.6363872289658 1119.9695746153593
leaf_count=115596 98079 216666 25469 225490 10440 180452 26720 216028 30895 679455 143773 188182 70287 563007 81850 98061 180151 80406 118349 163151 85433 93256 300354 590946 59675 24738 56780 30173 63133 7089
internal_value=-0.000211999 0.000324115 -0.000321385 0.00112176 -0.000137625 0.00103749 -0.00178608 0.00116003 -0.00293478 0.01019 0.000698508 -0.00695474 -0.0159984 0.0105551 -0.0151101 -0.0108762 -0.0215878 -0.0214609 -0.00235184 0.0217795 0.000873885 -0.00736377 -0.0121163 0.00762353 -0.0129724 0.000511089 -0.0294576 0.0428153 -0.0130193 0.00763645
internal_weight=619345 615100 600986 528698 498318 462054 353117 292486 203703 108937 170304 80898.3 60630.2 88783.1 36264.2 72288 32034.3 33399.5 40253.7 30379.7 60018.3 33370.1 54487.2 89405.4 23795 23801.1 20880.1 7907.47 11137.8 101030
internal_count=4824084 4708488 4610409 3937507 3748887 3441547 2714390 2163297 1573570 727157 1277136 655295 551093 589727 307340 672902 337887 296434 335015 188620 454742 266560 480806 621841 239826 181127 200553 40613 87871 686544
is_linear=0
shrinkage=0.1


Tree=18
num_leaves=31
num_cat=0
split_feature=10 6 5 3 0 0 2 7 1 7 1 5 10 7 0 7 3 0 7 9 4 10 3 11 5 2 0 0 2 4
split_gain=2262.74 908.395 967.302 656.213 752.133 621.555 604.158 598.65 710.268 653.767 478.167 468.035 413.535 406.511 414.861 363.774 357.813 356.98 349.131 325.591 347.749 663.56 306.619 299.947 298.729 293.802 288.111 281.105 347.184 271.952
threshold=-11035.722697911178 0.042915980800579769 42.963374396839789 43194.42500000001 1755.0250000000003 10735.450000000003 21.163006884462703 83.708615916496697 5571.6666666666661 232.05946203265393 9814.7916666666661 -49.022980913712168 -2128.6295270952146 564.99196378208433 23208.400000000005 640.96649171949286 642.1750000000003 23208.400000000005 1156.5382247223868 17.392845069108922 -185.00866675707923 2766.9244304914268 6484.3250000000016 0.0012365861819126996 -52.3799620393278 31.281627700851988 16137.000000000002 3012.3750000000005 58.390320028394207 -329.540057260212
decision_type=2 2 2 2 2 2 2 2 2 2 2 2 2 2 2 2 2 2 2 2 2 2 2 2 2 2 2 2 2 2
left_child=-1 6 3 4 -3 25 -2 -6 11 -10 -11 -9 -8 26 -15 -7 -14 -17 -19 20 21 24 -16 -18 29 -4 -12 28 -27 -5
right_child=1 2 5 19 7 15 12 8 9 10 13 -13 16 14 22 17 23 18 -20 -21 -22 -23 -24 -25 -26 27 -28 -29 -30 -31
leaf_value=-0.075663295470470029 0.043873710599331761 0.018906159753732121 -0.048592008402598537 0.14743941755941123 -0.04132505974865746 -0.013155347812915292 -0.030253967886661699 0.059074678808968842 -0.038946366774364034 0.0079561041561245511 -0.021906455999009651 0.00011355801904009896 0.065919425368622261 0.0098606189957192881 -0.035790975048627986 0.013174080984951137 0.0083178172854309531 -0.019720367002261069 0.0024961923444402176 0.00060992270385953602 -0.012860099583223088 -0.0037853515949950144 -0.0078487566770158914 0.052903616995505921 0.022339605749499447 0.064740713200795011 -0.055730338795438129 0.012011391220689041 0.017938796938873888 0.045078948362134448
leaf_weight=3948.5638095736504 5672.3546681627631 7902.3879320174456 746.25654609873891 442.68799559772015 7014.9001826494932 15660.452938038856 2503.7733269482851 1432.9434708952904 10898.738876096904 9746.8090341724455 8387.5556718707085 22269.817749392241 1177.6788859069347 7573.4210198521614 6289.8120821937919 25618.741391889751 39612.697275497019 8575.3575030639768 40388.657400280237 241148.35371156782 42763.914974011481 30134.753699608147 10454.758159652352 1568.6158906891942 2068.1669235527515 2336.08035299927 3598.8845473639667 52981.395890105516 4929.9078708514571 627.41497183591127
leaf_count=115596 31827 52516 3749 1961 85962 136235 27638 8484 132895 78289 85317 192463 8140 58539 70220 167398 282986 81253 307414 1815310 312884 199246 94485 12048 11021 13576 42405 362124 28906 3197
internal_value=-0.000204959 0.000279889 -0.000870982 -0.00337782 -0.0106418 0.00597069 0.0131241 -0.0133052 -0.0108681 -0.0169223 -0.01171 0.00367804 0.00923616 -0.0169898 -0.00956069 0.000700256 0.0115704 0.00360957 -0.00139473 -0.00118915 -0.00689486 0.000771925 -0.0183448 0.0100161 0.0445325 0.0137686 -0.032062 0.014541 0.032986 0.0874242
internal_weight=618476 614527 563992 412755 95570 151237 50535.1 87667.6 80652.7 56950 46051.2 23702.8 44862.8 36304.4 24318 90243.2 42359 74582.8 48964 317185 76036.9 33273 16744.6 41181.3 3138.27 60993.6 11986.4 60247.4 7265.99 1070.1
internal_count=4824084 4708488 4345849 3245194 901575 1100655 362639 849059 763097 562150 429255 200947 330812 350966 223244 692300 303174 556065 388667 2343619 528309 215425 164705 295034 16179 408355 127722 404606 42482 5158
is_linear=0
shrinkage=0.1


Tree=19
num_leaves=31
num_cat=0
split_feature=10 6 10 0 7 0 7 0 7 0 1 7 1 1 4 4 0 0 7 4 7 7 0 4 1 7 7 0 7 7
split_gain=1994.9 762.133 727.557 1071.23 620.293 1021.26 982.543 958.893 1052.12 785.267 724.945 1068.84 718.675 657.765 626.542 553.533 553.439 491.036 671.763 427.667 409.604 407.199 635.264 404.713 398.6 362.724 360.829 316.357 407.706 302.538
threshold=-17728.219339622523 -0.094727802480640236 -368.05109078322965 1798.6250000000002 134.66450071340245 4226.1250000000018 272.58295927230489 9646.725000000004 531.14754068753666 7890.1250000000018 24366.825000000008 1156.5382247223868 16769.591666666671 4021.5499999999997 -491.4049450224706 -207.99703542742824 3486.4750000000008 53414.000000000007 2348.7164182237689 -85.831618193191716 110.86223735962155 61.789870491092039 1464.45 -1974.2008248527047 43907.500000000007 811.26601744610377 798.86351778190692 106609.07500000001 5857.224249642496 798.86351778190692
decision_type=2 2 2 2 2 2 2 2 2 2 2 2 2 2 2 2 2 2 2 2 2 2 2 2 2 2 2 2 2 2
left_child=-1 -2 16 19 13 15 9 14 12 -7 25 24 -9 -5 -8 29 21 23 -19 -4 -18 22 -3 -13 -12 -10 -17 -20 -29 -6
right_child=1 2 3 4 5 6 7 8 10 -11 11 17 -14 -15 -16 26 20 18 27 -21 -22 -23 -24 -25 -26 -27 -28 28 -30 -31
leaf_value=-0.080582784862315571 0.02288238703780961 -0.0042444938286406086 0.053789466020682075 -0.0057597225922261588 0.045393643825072022 -0.006821581538126462 0.041648577924089776 -0.011002241416781919 0.001043188774843759 -0.03477461826976868 -0.019149098667003199 0.041464808602424706 -0.047690511704398461 -0.038183831999888715 0.0079287772149526734 0.010417483405309673 -0.051107101505034537 -0.028125631907596135 0.010259412992024678 0.016114553606418263 -0.013570747907539898 0.0026923204238343689 -0.035113924094815861 0.0056154550234682066 -0.058918842122417728 0.013657527274717425 -0.052204076014697266 -0.025033549932194206 0.0036262223389921244 -0.066918706013093437
leaf_weight=3071.5573599934578 14475.049242835492 21577.28476023674 3546.5687058717012 34453.885352097452 5931.8342531621456 54622.329606547952 5898.7405721992254 32602.734307281673 44450.457652270794 12315.804810557514 18613.436472401023 3466.0321162715554 6384.8422269299626 7644.7717150114477 83692.277803324163 61255.142899148166 5041.7152929492295 10924.896916896105 16766.099987797439 20027.842615433037 6866.2504556439817 28881.796262670308 9647.0188846215606 34437.810015812516 2914.8395661115646 46791.090737722814 934.1719406247139 8487.4659048765898 11955.45016810298 249.94798874855042
leaf_count=97330 98702 186192 17463 264761 29374 453678 30345 280742 319033 138279 173021 20597 70687 87226 554597 397328 70394 105875 121704 125388 80816 240933 112210 246329 36284 293721 6104 73669 90123 1179
internal_value=-0.000193411 0.000208179 -0.00033849 0.000946677 -2.63736e-05 0.001031 -0.000925279 0.00133185 -0.00199005 -0.0119646 0.000955578 -0.00460596 -0.0170105 -0.0116477 0.0101489 0.0123137 -0.00976778 0.000380354 -0.00632356 0.0217824 -0.0294633 -0.0058658 -0.0137819 0.00889362 -0.0245338 0.00751216 0.00947682 7.77248e-05 -0.00827271 0.0408525
internal_weight=617929 614858 600383 528368 504794 462695 394324 327386 237795 66938.1 198808 107566 38987.6 42098.7 89591 68371.1 72014.1 86037.8 48133.9 23574.4 11908 60106.1 31224.3 37903.8 21528.3 91241.5 62189.3 37209 20442.9 6181.78
internal_count=4824084 4726754 4628052 3937507 3794656 3442669 3008684 2416727 1831785 591957 1480356 867602 351429 351987 584942 433985 690545 658297 391371 142851 151210 539335 298402 266926 209305 612754 403432 285496 163792 30553
is_linear=0
shrinkage=0.1


Tree=20
num_leaves=31
num_cat=0
split_feature=10 6 5 2 0 7 7 0 7 1 4 0 1 7 4 3 3 10 0 0 0 7 0 0 7 11 7 4 11 7
split_gain=1756.41 671.379 783.886 525.106 515.845 1295.43 699.576 541.24 812.637 710.042 634.211 467.866 453.284 698.424 398.884 377.362 361.892 342.55 337.676 328.589 321.62 309.114 305.918 304.244 327.524 292.012 289.634 281.332 276.008 273.79
threshold=-17728.219339622523 0.060790045500503292 47.447574800213793 24.869995862983377 1842.7250000000001 87.22228352858734 51.614277849582486 3754.8500000000008 220.80814304754736 6969.4333333333343 -286.11218849765913 12199.750000000002 9444.0833333333339 431.45987553308595 -491.4049450224706 369.2000000000001 8086.9500000000016 -2414.8056516758056 1174.8500000000001 3012.3750000000005 23758.500000000004 825.80954589630153 16137.000000000002 35348.750000000007 1641.9019531212978 -0.020070194591821425 694.75964117171691 -81.239929750249289 0.0011386698863479201 57.768373430989691
decision_type=2 2 2 2 2 2 2 2 2 2 2 2 2 2 2 2 2 2 2 2 2 2 2 2 2 2 2 2 2 2
left_child=-1 3 4 -2 6 19 18 10 9 -9 25 -4 14 22 -10 -5 20 -17 -3 29 -15 -13 -14 -23 -25 -7 -12 -8 -19 -6
right_child=1 2 11 15 5 7 27 8 12 -11 26 21 13 16 -16 17 -18 28 -20 -21 -22 23 -24 24 -26 -27 -28 -29 -30 -31
leaf_value=-0.078533835119310613 0.029370341181059939 0.00011993738980128129 0.011914096550596075 0.067556831403741038 -0.044027032932559218 0.0041718138942904081 0.042192212780244993 -0.010901568504330552 0.042617284308662712 -0.041643851570797946 0.0040035063377454804 -0.010425674389966636 -0.019792253521993281 0.0005197839027778617 0.0022931716795735638 -0.033983056879369845 -0.0011311219333804696 0.0045502717812424716 -0.027263046213467985 -0.049460703399637374 -0.033093757356249802 0.011704166617029353 -0.061287616406408535 -0.022359803366712134 0.0024462916428167922 0.10373080047555072 -0.058832014441751915 0.011915715930168526 0.042659966996155575 -0.01363812157379183
leaf_weight=2848.1224938109517 11650.907906800508 14860.413004592061 63052.02971868962 964.14124536514282 3925.0459317453206 430.94003181159496 3422.6453582271934 43052.46682824567 2532.4967991784215 9101.1940986737609 70984.451460927725 19822.81877778843 15544.561831995845 4753.2084968350828 78255.562119938433 2219.3828802369535 100349.62063127756 41594.72977367416 6461.5194111205637 5467.0359693095088 7096.1458450555801 27670.698760867119 2005.9337104149163 6635.4457297027111 26902.476896852255 931.21050029993057 741.22475335747004 29709.664585277438 1991.4068672582507 12117.75033601746
leaf_count=97330 67478 126148 416442 6365 52407 1878 17406 399224 12505 116959 502525 170981 153115 39427 544689 27192 730261 303930 61151 75336 83220 184191 26226 66435 204456 4214 4995 202178 15034 110386
internal_value=-0.000185715 0.000177567 -0.000894262 0.0103752 -0.00311579 -0.00449761 0.00595073 -0.00297359 -0.00509131 -0.0162663 0.00463787 0.00545412 -0.00232307 -0.00598442 0.00355723 0.00564326 -0.00308269 0.00434007 -0.00817836 -0.0282882 -0.0196101 0.000427492 -0.024535 0.00394236 -0.00246157 0.0722336 0.00335415 0.0150433 0.00629147 -0.0210731
internal_weight=617095 614247 555827 58420.6 411743 357289 54454.2 335779 262691 52153.7 73087.8 144083 210538 129749 80788.1 46769.7 112199 45805.5 21321.9 21509.8 11849.4 81031.4 17550.5 61208.6 33537.9 1362.15 71725.7 33132.3 43586.1 16042.8
internal_count=4824084 4726754 4306755 419999 3264250 2857367 406883 2619238 2105626 516183 513612 1042505 1589443 1032249 557194 352521 852908 346156 187299 238129 122647 626063 179341 455082 270891 6092 507520 219584 318964 162793
is_linear=0
shrinkage=0.1


Tree=21
num_leaves=31
num_cat=0
split_feature=8 10 6 5 0 7 3 0 2 0 7 4 1 0 4 1 7 4 9 3 11 11 1 5 5 10 0 7 4 7
split_gain=1552.28 618.202 714.795 581.702 619.031 618.204 459.842 455.076 449.727 438.682 611.967 480.058 429.488 418.782 416.466 414.041 676.855 369.41 360.633 321.205 298.928 280.663 274.434 440.932 372.853 280.951 271.174 569.056 296.168 255.467
threshold=3.4159803173605219e+20 -1291.8424916221854 0.087601988887158977 64.407572850650084 2645.3000000000006 152.06086031740139 24419.350000000006 4650.1250000000009 21.163006884462703 6216.7500000000009 339.7554135366463 -471.37121601684424 10619.625000000002 14097.725000000002 -221.23795509314093 16180.583333333338 731.12986935072547 -993.61790656547771 25.334851776489952 509.15000000000015 -0.016140381048274678 -0.016140381048274678 5771.1416666666655 -84.315600775751562 -45.837325077467419 14507.082259342011 934.47500000000002 74.839238717366626 -47.153575166615944 83.708615916496697
decision_type=2 2 2 2 2 2 2 2 2 2 2 2 2 2 2 2 2 2 2 2 2 2 2 2 2 2 2 2 2 2
left_child=1 6 8 4 14 7 -1 29 -3 11 12 21 -11 -5 20 17 -17 -12 -8 -10 -4 -7 24 25 -21 -24 28 -28 -16 -6
right_child=-2 2 3 13 5 9 18 -9 19 10 15 -13 -14 -15 26 16 -18 -19 -20 22 -22 -23 23 -25 -26 -27 27 -29 -30 -31
leaf_value=-0.031844293111087628 -0.080127597058769692 0.035606940136884924 0.013127906787222452 0.012432588984115901 -0.039723643246687708 0.014204477994581645 -0.023875525289281618 -0.039052837683383627 0.054314576095328138 -0.011909339422997531 0.06148011576188063 0.0025041692176632257 -0.041424407830610029 0.00059303308249418702 0.078404600234541336 -0.028342645304290322 -0.0031844007404679305 0.0022860461864485523 5.4293414483993307e-05 0.037827621788617233 0.11721680576042991 0.10292011750314374 0.02202943010548121 -0.012984807527343123 0.0077325266814590315 0.00017959924697082285 -0.013545449813062344 0.008658238836714096 0.015971865751286552 -0.008007456997205939
leaf_weight=8858.00800611265 2418.8494968265295 6589.8834874629974 531.08862900733948 53009.000618137419 2787.5510612502694 677.23488096892834 8508.2434294186532 6985.5921423137188 1463.8203985542059 32951.829203911126 1069.869114369154 85414.686346076429 5797.6162863299251 68458.749781608582 848.18862598389387 12797.73522329703 65050.738056100905 72315.608232699335 24240.497836731374 5728.6711959913373 574.21054375171661 753.21000355482101 10548.825993020087 13116.309201695025 14629.732882402837 13310.065283346921 15444.732345305383 45686.447390720248 7293.4107727333903 28556.66015651077
leaf_count=141772 72202 35461 2342 341765 30490 3030 82785 89104 9468 304259 5278 589332 71470 528494 4617 127786 506258 503886 255906 34668 2588 3519 68128 107594 101555 98539 116348 296535 46844 242061
internal_value=-0.000176106 0.000138863 0.000994357 -0.000274712 -0.00217597 -0.00406953 -0.0116303 -0.015972 0.0108345 -0.0024215 -0.00511294 0.00346632 -0.0163253 0.00575986 0.00630351 -0.00224008 -0.00732024 0.00314902 -0.00616276 0.00805811 0.0672028 0.0609183 0.0068771 0.00174339 0.016201 0.00984015 0.00533181 0.0030485 0.0224761 -0.0108281
internal_weight=616417 613998 572391 507004 385536 315158 41606.7 38329.8 65387.3 276829 189983 86845.1 38749.4 121468 70378.1 151234 77848.5 73385.5 32748.7 58797.4 1105.3 1430.44 57333.6 36975.2 20358.4 23858.9 69272.8 61131.2 8141.6 31344.2
internal_count=4824084 4751882 4271419 3816006 2945747 2476473 480463 361655 455413 2114818 1518937 595881 375729 870259 469274 1143208 634044 509164 338691 419952 4930 6549 410484 274261 136223 166667 464344 412883 51461 272551
is_linear=0
shrinkage=0.1


Tree=22
num_leaves=31
num_cat=0
split_feature=10 6 6 7 0 0 7 1 0 7 0 7 0 7 0 4 4 7 4 0 7 7 0 7 10 7 1 0 7 7
split_gain=1383.28 504.251 479.147 491.002 1043.64 929.759 742.334 898.292 729.377 956.004 549.162 819.239 584.636 872.126 549.16 488.964 430.63 413.545 434.727 409.447 338.608 293.009 289.387 380.704 289.188 286.298 354.16 285.859 466.244 290.849
threshold=-17728.219339622523 -0.11459345088952526 1.1154249479745493 74.839238717366626 2019.575 2436.5500000000006 190.74995338342771 6254.8833333333341 7430.5750000000016 384.78788577453128 14327.825000000001 811.26601744610377 38643.750000000007 1594.7359728964082 27771.250000000004 -249.83547351799686 -619.12701653995452 450.78169731598001 -169.16104208098065 13305.500000000002 1323.3936899194632 1466.9274393639059 552.80000000000007 38.38150471346831 9799.8444622440184 112.6353619527226 3701.9249999999997 76704.150000000009 3094.9999999991783 2548.1557020221048
decision_type=2 2 2 2 2 2 2 2 2 2 2 2 2 2 2 2 2 2 2 2 2 2 2 2 2 2 2 2 2 2
left_child=-1 -2 3 4 22 17 7 25 15 19 16 14 21 -14 -12 20 -11 18 -5 -10 -8 -13 -3 -24 -23 26 -7 29 -29 -15
right_child=1 2 -4 5 -6 6 8 -9 9 10 11 12 13 27 -16 -17 -18 -19 -20 -21 -22 24 23 -25 -26 -27 -28 28 -30 -31
leaf_value=-0.074570629239187142 0.020497219709363555 0.022506809816180473 0.017013122010428039 0.057472790422703715 -0.038144663923693145 -0.0078349302879486618 0.026328783091630139 -0.039194006398346699 -0.013066059427559965 0.031354465866003149 -0.011741733193504772 0.0029088978782990812 -0.031085524116809361 -0.0023925409630979433 -0.04980558390945538 0.0048652128472718567 0.0050134407819010397 -0.051371021297039299 0.01255840032173359 -0.04637427951070075 -0.070845995008754978 -0.085085747154853952 -0.021354857994333148 0.0010450955995271569 0.018650476145329546 -0.0025844519073124632 -0.037015912850636642 -0.032014615929527784 -0.0010262774167368966 0.019322050134910201
leaf_weight=2488.5796040818095 11926.194102965295 4064.2603860162199 15627.510911129415 2262.9497075639665 10534.587376907468 14270.781642483547 15045.555934228003 9068.3039286248386 34555.643465971574 6826.362352386117 31195.750751703978 45070.665217503905 11365.311235222965 13888.28205024451 4314.5148243382573 99007.915361365303 68337.501460313797 966.60034134984016 45171.350313410163 4131.8736886326224 367.33796115219593 272.31672018021345 10810.115213267505 25450.884852005169 20412.366002909839 60847.366988927126 5869.8196855857968 6056.1143372058868 24487.216635562479 11096.77263366431
leaf_count=97330 79648 30933 110397 10074 136166 131250 81006 123498 318575 36686 268605 322795 119963 108060 52652 668043 459683 5793 291017 54289 1808 1643 103863 200641 125873 489244 73649 57661 189933 73306
internal_value=-0.000166116 0.000135793 -0.000268005 -0.000729058 -0.0101183 0.000163717 -0.00115134 -0.00934713 0.000710476 -0.00202172 0.000299899 -0.00287626 0.000735087 -0.005847 -0.0163665 0.00744446 0.00740573 0.0133816 0.0147011 -0.0166234 0.0240128 0.00743112 -0.00279667 -0.00563277 0.0172848 -0.00600514 -0.0163395 -0.000681286 -0.00717063 0.0072517
internal_weight=615791 613302 601376 585749 50859.8 534889 486488 90056.3 396432 282011 243323 168159 132649 66893.7 35510.3 114421 75163.9 48400.9 47434.3 38687.5 15412.9 65755.3 40325.3 36261 20684.7 80988 20140.6 55528.4 30543.3 24985.1
internal_count=4824084 4726754 4647106 4536709 471603 4065106 3758222 817641 2940581 2189724 1816860 1320491 999234 548923 321257 750857 496369 306884 301091 372864 82814 450311 335437 304504 127516 694143 204899 428960 247594 181366
is_linear=0
shrinkage=0.1


Tree=23
num_leaves=31
num_cat=0
split_feature=8 7 0 0 7 0 0 7 1 5 0 7 0 7 4 1 4 4 1 0 7 1 7 7 11 7 11 1 3 7
split_gain=1231 446.608 884.096 784.683 672.272 773.421 740.859 1009.4 576 517.57 503.492 959.526 491.598 984.499 489.437 458.645 417.33 340.143 308.881 302.766 398.788 302.195 329.982 298.604 280.116 268.445 256.789 275.681 255.82 252.551
threshold=3.4159803173605219e+20 49.497613895891782 1414.8 1223.2750000000003 99.952702805622977 3441.3750000000005 4226.1250000000018 237.59864925948605 7827.133333333335 -47.347086624764209 10735.450000000003 531.14754068753666 32618.750000000004 1466.9274393639059 -685.03286735121935 18072.400000000005 -1274.7266218456996 -64.369796426328534 53340.416666666664 60576.250000000007 2799.965561084879 117120.00000000001 5309.8914711620555 401.6110484898154 -0.0053967196996483743 1507.6123544886991 -0.014234969796319439 8298.2500000000018 118101.75000000004 226.39544759933821
decision_type=2 2 2 2 2 2 2 2 2 2 2 2 2 2 2 2 2 2 2 2 2 2 2 2 2 2 2 2 2 2
left_child=1 3 17 -1 5 -4 9 8 -8 -6 14 15 16 18 26 -12 24 -3 -14 -15 -21 -22 -23 -16 -13 28 -9 -28 -25 -19
right_child=-2 2 4 -5 6 -7 7 10 -10 -11 11 12 13 19 23 -17 -18 29 -20 20 21 22 -24 25 -26 -27 27 -29 -30 -31
leaf_value=-0.00020064733357538479 -0.075939780524379233 0.054475029092902173 -0.0066653267329997911 -0.03714886372454191 0.031179989900095628 -0.045391839320583827 -0.0090030903963384274 0.011612857241460882 -0.036574873276495785 0.0061794104864018951 -0.013188230045576949 0.020794312369937815 -0.019973604880836618 0.0090684379703178577 0.00083137862775186614 -0.047464217810243875 0.0036492596210395672 0.018499643828125689 -0.05431767037876517 -0.021994695405145162 0.012221870823792339 -0.028484683386472198 0.0011285022564554333 0.023738994284150147 0.077646638716994884 -0.040488271654327668 0.16239526953382671 0.051904927863713229 0.0075619103405078492 -0.052719554044998153
leaf_weight=16801.45478608273 2136.1503321230412 2714.6109899412841 39032.324840690941 8736.7748353481293 9012.2021024823189 5942.1105194333941 47755.880937647074 1512.3181367218494 9005.7681638058275 102025.50700536929 25977.658383382484 4621.5804407671094 13942.820732446387 25223.167242057621 73691.245884358883 4594.3078049570322 105632.22844275273 16202.056284960359 3224.2970496360213 10200.832989165559 13275.837336795405 5350.4079744778574 12681.894764970988 13162.166538566351 1066.6674993932247 1004.0228234156966 259.30283650755882 1748.7138540744781 37990.416823871434 513.70257306843996
leaf_count=145221 72202 13780 336788 118436 49769 86229 445309 6881 118816 691920 241921 24277 138673 173677 534181 57227 740743 106207 42001 96901 94669 47909 96649 86099 6833 5915 1153 8733 228982 5983
internal_value=-0.000159255 0.000104863 0.000667734 -0.0128408 -4.98747e-05 -0.0117819 0.000959082 -0.000995085 -0.0133776 0.00820854 0.000983891 -0.00186611 0.000713624 -0.00506669 0.00595811 -0.0183392 0.00507009 0.0216429 -0.026424 0.000427574 -0.0048231 0.000771762 -0.0076581 0.00492937 0.0314553 0.0107194 0.0427342 0.066173 0.0117245 0.016311
internal_weight=615038 612902 587364 25538.2 567934 44974.4 522959 411922 56761.6 111038 355160 225792 195220 83899.3 129368 30572 111320 19430.4 17167.1 66732.1 41509 31308.1 18032.3 125848 5688.25 52156.6 3520.33 2008.02 51152.6 16715.8
internal_count=4824084 4751882 4488225 263657 4362255 423017 3939238 3197549 564125 741689 2633424 1761480 1462332 690479 871944 299148 771853 125970 180674 509805 336128 239227 144558 855177 31110 320996 16767 9886 315081 112190
is_linear=0
shrinkage=0.1


Tree=24
num_leaves=31
num_cat=0
split_feature=10 6 2 4 0 9 4 10 0 5 5 0 10 0 7 7 4 3 0 7 11 1 11 5 11 7 0 4 4 1
split_gain=1077.63 438.874 415.136 408.371 718.234 437.507 336.715 314.162 390.509 477.296 354.007 335.132 312.76 308.635 809.568 333.931 389.566 322.235 378.632 301.454 299.61 342.505 284.548 277.722 269.358 262.504 432.97 261.932 254.974 253.094
threshold=-17728.219339622523 -0.17085275831342076 77.313897026380531 -382.70359404826826 17036.250000000004 21.802604313240646 -1560.5938488122481 -1057.5449561119799 6005.4250000000011 -30.718863424332742 -173.65754062254263 2436.5500000000006 54297.623489201244 4226.1250000000018 148.10948556911987 683.79689199501956 -98.591966366334859 9786.3750000000018 12020.300000000003 290.1164868892385 -0.0055865770770647171 4568.3750000000009 -0.0069198228219536804 -229.01190859937918 -0.020070194591821425 61.789870491092039 2054.2750000000005 -2279.5025074751497 146.89335433740897 1785.0666666666668
decision_type=2 2 2 2 2 2 2 2 2 2 2 2 2 2 2 2 2 2 2 2 2 2 2 2 2 2 2 2 2 2
left_child=-1 -2 3 4 20 7 12 -5 9 11 -10 -9 22 15 -15 16 -7 18 19 -16 21 24 -6 -22 -3 26 -18 -24 -20 -27
right_child=1 2 -4 5 6 13 -8 8 10 -11 -12 -13 -14 14 17 -17 25 -19 28 -21 23 -23 27 -25 -26 29 -28 -29 -30 -31
leaf_value=-0.07028826109649286 0.026347841966706732 0.017079811291300588 0.018472396411876382 -0.025590421285397104 0.010528786618194836 0.022427461201539989 -0.006805918973623537 0.040273303306771785 0.0018356007018844964 -0.0076654956942831341 -0.017980404975264069 0.0059083714733451764 -0.00042305839144618994 -0.030508309810383074 -0.019315180550380354 -0.048729193729387436 -0.0015705583654177036 0.00024761079645797319 -0.0339084009532351 0.014938931887242865 0.11304638373896432 0.008725561515725384 0.095263428465037353 0.029227240813317068 0.13645221735460852 0.015082374122461134 -0.041326047128842712 0.029896282388413228 -0.0077077707684532083 0.0024865145527631222
leaf_weight=2182.9289903771132 6303.6008650902659 374.33499848842621 11707.678740510717 8489.6362985018641 4811.973847232759 10791.574588149786 34794.52968390286 3285.3281791657209 12401.578827168792 35264.84699389711 33016.507413174957 20833.489743728191 12215.661906827241 9658.2144526690245 4037.5996832735837 1203.234339274466 22625.665894143283 220566.71162500419 8099.9020873811096 7064.3303896188736 412.62510894984007 18914.03556946665 893.51465714722872 9413.2165820598602 381.84353819489479 19751.190681818873 3116.8293253928423 1952.6980377212167 6859.928754132241 82942.818824188784
leaf_count=97330 41916 1588 71239 85638 25980 64876 283388 17358 87420 253262 278451 134729 96039 135238 46356 7916 204943 1668620 101859 50025 2430 102609 6080 62767 1596 124420 50557 14103 72445 632906
internal_value=-0.000152171 9.79206e-05 -0.000175184 -0.000542618 0.00591088 -0.00160761 -0.000874633 -0.00708844 -0.00558965 -0.000251239 -0.0125696 0.0105894 0.00950968 -4.24403e-05 -0.00210711 0.00372557 0.0041789 -0.00099489 -0.0115105 0.00248124 0.0184872 0.011364 0.0253535 0.0327471 0.0773587 0.0026456 -0.00638404 0.0504171 -0.0218939 0.00490908
internal_weight=614368 612185 605882 594174 84164.4 510009 54668.4 113291 104802 59383.7 45418.1 24118.8 19873.8 396718 256287 140431 139228 246628 26061.8 11101.9 29496.1 19670.2 7658.19 9825.84 756.179 128437 25742.5 2846.21 14959.8 102694
internal_count=4824084 4726754 4684838 4613599 596580 4017019 425590 856858 771220 405349 365871 152087 142202 3160161 2074543 1085618 1077702 1939305 270685 96381 170990 105793 46163 65197 3184 1012826 255500 20183 174304 757326
is_linear=0
shrinkage=0.1


Tree=25
num_leaves=31
num_cat=0
split_feature=8 3 6 6 5 3 1 10 1 9 2 2 0 2 2 1 6 8 4 0 7 5 4 10 9 9 4 10 11 11
split_gain=974.271 416.774 405.685 375.619 420.073 433.141 632.504 329.897 391.366 318.316 311.42 304.92 282.191 275.421 271.466 252.411 231.89 223.992 203.239 216.948 285.028 223.24 200.142 444.009 306.807 203.164 277.277 324.063 198.226 192.606
threshold=3.4159803173605219e+20 369.2000000000001 0.28850735004462641 -0.0087173405164707625 25.593058826066684 16908.075000000001 1143.7833333333335 -483.83175424792358 4466.041666666667 6.5911749961927057 29.237420908828152 47.482014361183829 2280.0500000000006 56.213992345491164 19.208535322945526 19959.133333333339 0.15619711933946193 89.487152278960437 -1560.5938488122481 21663.750000000004 905.13641651133787 89.310850088765179 -431.65038845206431 10558.077460441114 25.334851776489952 42.029080925074105 -993.61790656547771 3834.2426495499899 -0.020070194591821425 0.0012365861819126996
decision_type=2 2 2 2 2 2 2 2 2 2 2 2 2 2 2 2 2 2 2 2 2 2 2 2 2 2 2 2 2 2
left_child=1 2 15 14 5 6 11 -8 -9 16 -6 -5 13 -12 -3 -1 -7 22 -14 21 -21 -20 23 25 -24 26 28 -28 -11 -16
right_child=-2 3 -4 4 10 9 7 8 -10 17 12 -13 18 -15 29 -17 -18 -19 19 20 -22 -23 24 -25 -26 -27 27 -29 -30 -31
leaf_value=0.054319197663449663 -0.071640228754485322 0.038809270530314771 0.005639264013664924 0.070698196843227257 -0.045459975275883698 -0.0057680282011548052 -0.036795871166064302 0.010112968758267629 -0.017368855627085993 -0.01083576253473152 0.048709006406759084 0.0041838229387447913 0.0205975906162746 0.0089188256770609143 0.0056042733415012942 -0.0090899251270911939 -0.029730784977136604 -0.029441572962470543 0.00057077207522025785 -0.02409606167413119 -0.00092235515065652678 0.0092391745006265621 -0.0059939971635342443 0.0003702990815825783 0.00087261570678080877 -0.055249876103382327 0.087021637626983867 0.016834906739136065 0.11820974885524127 0.047490788573568685
leaf_weight=3504.1808709111065 1900.0223441645503 2986.4533571768552 9168.4412188772112 1227.4451421201229 1318.930754000321 10534.599302267656 6305.8270086888224 6508.945742238313 25417.307759381831 151.23717574775219 2563.1364160403609 1571.7708192821592 5981.8946325145662 5414.0741071999073 28887.261080887169 764.78990047425032 6548.8764301836491 2734.7227052021772 73584.772128386423 6070.4448604676872 42234.475705642253 49826.446890044957 100502.00694119744 25155.775486417115 184568.80142271146 281.01729306578636 743.34380422532558 5718.9751544594765 559.04242560267448 1141.1632826458663
leaf_count=24140 72202 15401 76841 6804 7141 67251 102031 45384 279288 692 14713 9738 45048 31430 204139 7619 42736 24960 560813 66036 327517 319540 766518 180878 1476601 1447 3221 32593 2624 8738
internal_value=-0.000143302 7.86765e-05 0.0174956 -0.00031234 -0.000917621 -0.0028332 -0.0125348 -0.0158943 -0.011766 -0.00165373 0.00296007 0.0333501 0.00330402 0.0217037 0.0100557 0.0429594 -0.014954 -0.000944606 0.00247802 0.00184681 -0.00383458 0.00407058 -0.000699292 0.00672199 -0.00154822 0.0281588 0.0314267 0.0249083 0.0907326 0.00719608
internal_weight=613876 611976 13437.4 598539 565524 378530 41031.3 38232.1 31926.3 337498 186994 2799.22 185675 7977.21 33014.9 4268.97 17083.5 320415 177698 171716 48304.9 123411 317680 32609.4 285071 7453.62 7172.6 6462.32 710.28 30028.4
internal_count=4824084 4751882 108600 4643282 4415004 3042766 443245 426703 324672 2599521 1372238 16542 1365097 46143 228278 31759 109987 2489534 1318954 1273906 393553 880353 2464574 221455 2243119 40577 39130 35814 3316 212877
is_linear=0
shrinkage=0.1


Tree=26
num_leaves=31
num_cat=0
split_feature=10 6 9 5 0 6 0 3 5 2 4 0 0 3 3 3 2 1 5 1 2 4 3 7 10 2 4 3 4 6
split_gain=848.345 368.649 492.854 341.357 401.205 306.212 292.263 288.299 283.292 269.263 264.942 292.396 245.111 232.596 222.891 267.296 279.766 265.258 285.614 222.479 195.065 185.191 177.255 176.827 172.087 169.442 169.097 183.536 165.274 164.91
threshold=-17728.219339622523 0.087601988887158977 17.392845069108922 -31.749103348803299 7715.6000000000013 1.1154249479745493 3012.3750000000005 1152.0750000000003 -103.49630395861783 25.664064041138861 -766.80563949321447 49385.000000000007 24998.750000000004 4595.8000000000002 22163.500000000004 642.1750000000003 47.706189410726346 1031.2666666666667 20.835864414076219 19560.933333333338 48.631055751766503 -127.44726532401545 37413.099999999999 2167.8046514079306 -2414.8056516758056 73.462152407267737 -164.58761567505709 3397.6250000000005 56.830122714644865 0.16381512634804554
decision_type=2 2 2 2 2 2 2 2 2 2 2 2 2 2 2 2 2 2 2 2 2 2 2 2 2 2 2 2 2 2
left_child=-1 3 7 4 26 9 13 -3 12 -4 11 -11 -6 -5 15 16 19 20 28 -12 -17 -8 -7 -13 -15 -18 -2 -28 -19 -9
right_child=1 2 5 6 8 22 21 29 -10 10 14 23 -14 24 -16 17 25 18 -20 -21 -22 -23 -24 -25 -26 -27 27 -29 -30 -31
leaf_value=-0.066088050855531696 0.036284228702965597 0.027789587393402562 -0.046831435878592891 0.063184739072752946 0.020070872101004378 0.037395670610818117 -0.00039755105699138199 -0.0021581867349649473 -0.012316169110759915 0.023318553942514739 0.035777179773156982 -0.031703547225607837 -0.00039549997786262313 -0.023709226219101601 0.00053466235468572316 0.059470791621818599 -0.0072602556163409706 -0.021324036176568015 -0.0015552382231651741 -0.030065031251829799 -0.0013845224912149743 -0.026056276146867643 0.0093127921443359359 0.0049030561131105984 0.0097806496443355942 0.052507850902051414 0.073889955905046253 0.012973198222877267 -0.0034787756958287331 -0.012019170766284113
leaf_weight=1944.0505463648587 6696.3930442668498 2192.7698819562793 1225.9482147172093 713.71335240267217 12108.799709305167 2713.1673456486315 5093.3763899840415 24559.020939050242 7354.4706646315753 10099.877840654925 3900.7192247137427 1556.8859646320343 11324.257043741643 1833.836327617988 357283.95593783818 938.97660696320236 8019.2293457817286 21805.912491042167 20240.210256427526 590.93778146803379 1199.7053185142577 6282.4035670999438 13097.749769128859 8656.6560831740499 9394.681153986603 504.15190712921321 520.20505319163203 10045.315423548222 6810.919370142743 54804.433089628816
leaf_count=97330 35235 16643 7335 4282 75245 23666 37921 180434 61075 66898 26610 16173 84187 21755 2687986 5294 63787 257639 205801 7993 7314 62492 86344 70034 62795 3607 2814 66786 72377 406232
internal_value=-0.000133738 7.59176e-05 -0.000816476 0.0068307 0.0116486 0.000457237 -0.00309709 -0.00797941 0.00480638 -3.09998e-05 9.89228e-05 0.0112536 0.0101803 0.00782961 -0.00043892 -0.00587309 0.00691819 -0.00913766 -0.0106466 0.0271148 0.0253337 -0.0145679 0.0141318 -0.000677017 0.0043111 -0.00372501 0.023852 0.0159725 -0.0170768 -0.00896769
internal_weight=613513 611569 540201 71367.5 48049.4 458645 23318 81556.2 30787.5 442834 441608 20313.4 23433.1 11942.2 421295 64010.8 13015 50995.7 48857 4491.66 2138.68 11375.8 15810.9 10213.5 11228.5 8523.38 17261.9 10565.5 28616.8 79363.5
internal_count=4824084 4726754 4212167 514587 325342 3608858 189245 603309 220507 3498848 3491513 153105 159432 88832 3338408 650422 101997 548425 535817 34603 12608 100413 110010 86207 84550 67394 104835 69600 330016 586666
is_linear=0
shrinkage=0.1


Tree=27
num_leaves=31
num_cat=0
split_feature=8 7 0 7 0 0 7 1 0 7 5 0 1 7 7 0 5 10 7 5 4 10 11 3 7 0 7 7 1 10
split_gain=768.845 342.329 638.617 506.611 684.525 589.964 498.126 543.333 407.18 859.842 416.002 326.931 286.816 859.74 574.144 483.698 288.537 281.365 275.904 268.593 260.656 257.448 263.541 256.609 306.855 227.75 215.676 214.541 380.955 336.301
threshold=3.4159803173605219e+20 33.163686902176764 1061.6750000000002 92.675376269819196 2521.2750000000001 2973.5250000000005 168.51222800028367 5771.1416666666655 8347.0750000000007 353.95279545885472 -95.201486668645259 1464.45 31794.058333333345 1107.2130873818217 718.99323532994936 18393.200000000004 -387.94856080148293 4896.7457111382309 172.79812361715207 -33.87955939117554 -48.741600565858782 190.16296876899222 -0.010379000920112017 317902.52500000008 301.81615106374289 13305.500000000002 1132.4431629260791 1937.0298685912815 57915.833333333343 72853.226542069737
decision_type=2 2 2 2 2 2 2 2 2 2 2 2 2 2 2 2 2 2 2 2 2 2 2 2 2 2 2 2 2 2
left_child=1 11 18 4 -4 19 7 -7 10 25 -8 -1 14 -14 15 -11 -16 -18 20 -5 21 -3 -23 24 -12 -10 -26 28 -15 -29
right_child=-2 2 3 5 -6 6 8 -9 9 12 23 -13 13 27 16 -17 17 -19 -20 -21 -22 22 -24 -25 26 -27 -28 29 -30 -31
leaf_value=-0.010817958926690442 -0.067206284758655324 0.039787290321309156 -0.0031434648411831343 0.029826542021626531 -0.029943368782785296 -0.0057085190541043621 0.023690520813572452 -0.03635495279461478 -0.01644148496849103 -0.00049546946878216544 0.0028161512173329548 -0.062742357961952058 -0.034068839960560725 -0.0024044221510174575 0.029151348068313689 -0.023426599327444005 -0.095361294811778463 0.0069914461983190436 -0.050450587821339946 0.0078887520982950064 0.020103205709256222 0.054198712931261439 0.21581924019783721 -0.0016374445261433731 0.017216762648810079 -0.046460988621615622 -0.040907437235815386 0.011683173218605694 -0.033281358350714559 -0.0043822936134458677
leaf_weight=10043.206163655967 1703.8155427649617 1136.7542623542249 41005.577495282516 6221.8612798154354 12416.560477055609 40958.961236409843 10902.569696620107 6736.5003436356783 19558.47685425356 69030.348183775321 56682.935063723475 1379.0945363361388 8867.0831207167357 18144.438174810261 6138.0839963108301 10612.855319179595 269.50072728469968 78509.383777529001 494.75889764539897 54180.650803772733 10486.143544236198 207.62953831255436 196.25754338502884 58809.865338943899 26166.204064661637 2902.2925968077034 654.35760467685759 22293.010434031487 5124.3013819176704 31358.48674634099
